<GAP_2026_4_17_180_12_22_36_526>
<Potential label="GAP_2026_4_17_180_12_22_36_526" init_args="IP GAP label=GAP_2026_4_17_180_12_22_36_526"/>
<GAP_params label="GAP_2026_4_17_180_12_22_36_526" gap_version="1732112812">
  <GAP_data do_core="F">
    <e0 Z="1" value=".00000000000000000E+000"/>
    <e0 Z="2" value=".00000000000000000E+000"/>
    <e0 Z="3" value=".00000000000000000E+000"/>
    <e0 Z="4" value=".00000000000000000E+000"/>
    <e0 Z="5" value=".00000000000000000E+000"/>
    <e0 Z="6" value=".00000000000000000E+000"/>
    <e0 Z="7" value=".00000000000000000E+000"/>
    <e0 Z="8" value=".00000000000000000E+000"/>
    <e0 Z="9" value=".00000000000000000E+000"/>
    <e0 Z="10" value=".00000000000000000E+000"/>
    <e0 Z="11" value=".00000000000000000E+000"/>
    <e0 Z="12" value=".00000000000000000E+000"/>
    <e0 Z="13" value=".00000000000000000E+000"/>
    <e0 Z="14" value=".00000000000000000E+000"/>
    <e0 Z="15" value=".00000000000000000E+000"/>
    <e0 Z="16" value=".00000000000000000E+000"/>
    <e0 Z="17" value=".00000000000000000E+000"/>
    <e0 Z="18" value=".00000000000000000E+000"/>
    <e0 Z="19" value=".00000000000000000E+000"/>
    <e0 Z="20" value=".00000000000000000E+000"/>
    <e0 Z="21" value=".00000000000000000E+000"/>
    <e0 Z="22" value=".00000000000000000E+000"/>
    <e0 Z="23" value=".00000000000000000E+000"/>
    <e0 Z="24" value=".00000000000000000E+000"/>
    <e0 Z="25" value=".00000000000000000E+000"/>
    <e0 Z="26" value=".00000000000000000E+000"/>
    <e0 Z="27" value=".00000000000000000E+000"/>
    <e0 Z="28" value=".00000000000000000E+000"/>
    <e0 Z="29" value=".00000000000000000E+000"/>
    <e0 Z="30" value=".00000000000000000E+000"/>
    <e0 Z="31" value=".00000000000000000E+000"/>
    <e0 Z="32" value=".00000000000000000E+000"/>
    <e0 Z="33" value=".00000000000000000E+000"/>
    <e0 Z="34" value=".00000000000000000E+000"/>
    <e0 Z="35" value=".00000000000000000E+000"/>
    <e0 Z="36" value=".00000000000000000E+000"/>
    <e0 Z="37" value=".00000000000000000E+000"/>
    <e0 Z="38" value=".00000000000000000E+000"/>
    <e0 Z="39" value=".00000000000000000E+000"/>
    <e0 Z="40" value=".00000000000000000E+000"/>
    <e0 Z="41" value=".00000000000000000E+000"/>
    <e0 Z="42" value=".00000000000000000E+000"/>
    <e0 Z="43" value=".00000000000000000E+000"/>
    <e0 Z="44" value=".00000000000000000E+000"/>
    <e0 Z="45" value=".00000000000000000E+000"/>
    <e0 Z="46" value=".00000000000000000E+000"/>
    <e0 Z="47" value=".00000000000000000E+000"/>
    <e0 Z="48" value=".00000000000000000E+000"/>
    <e0 Z="49" value=".00000000000000000E+000"/>
    <e0 Z="50" value=".00000000000000000E+000"/>
    <e0 Z="51" value=".00000000000000000E+000"/>
    <e0 Z="52" value=".00000000000000000E+000"/>
    <e0 Z="53" value=".00000000000000000E+000"/>
    <e0 Z="54" value=".00000000000000000E+000"/>
    <e0 Z="55" value=".00000000000000000E+000"/>
    <e0 Z="56" value=".00000000000000000E+000"/>
    <e0 Z="57" value=".00000000000000000E+000"/>
    <e0 Z="58" value=".00000000000000000E+000"/>
    <e0 Z="59" value=".00000000000000000E+000"/>
    <e0 Z="60" value=".00000000000000000E+000"/>
    <e0 Z="61" value=".00000000000000000E+000"/>
    <e0 Z="62" value=".00000000000000000E+000"/>
    <e0 Z="63" value=".00000000000000000E+000"/>
    <e0 Z="64" value=".00000000000000000E+000"/>
    <e0 Z="65" value=".00000000000000000E+000"/>
    <e0 Z="66" value=".00000000000000000E+000"/>
    <e0 Z="67" value=".00000000000000000E+000"/>
    <e0 Z="68" value=".00000000000000000E+000"/>
    <e0 Z="69" value=".00000000000000000E+000"/>
    <e0 Z="70" value=".00000000000000000E+000"/>
    <e0 Z="71" value=".00000000000000000E+000"/>
    <e0 Z="72" value=".00000000000000000E+000"/>
    <e0 Z="73" value=".00000000000000000E+000"/>
    <e0 Z="74" value=".00000000000000000E+000"/>
    <e0 Z="75" value=".00000000000000000E+000"/>
    <e0 Z="76" value=".00000000000000000E+000"/>
    <e0 Z="77" value=".00000000000000000E+000"/>
    <e0 Z="78" value=".00000000000000000E+000"/>
    <e0 Z="79" value=".00000000000000000E+000"/>
    <e0 Z="80" value=".00000000000000000E+000"/>
    <e0 Z="81" value=".00000000000000000E+000"/>
    <e0 Z="82" value=".00000000000000000E+000"/>
    <e0 Z="83" value="-.50104790000000003E-001"/>
    <e0 Z="84" value=".00000000000000000E+000"/>
    <e0 Z="85" value=".00000000000000000E+000"/>
    <e0 Z="86" value=".00000000000000000E+000"/>
    <e0 Z="87" value=".00000000000000000E+000"/>
    <e0 Z="88" value=".00000000000000000E+000"/>
    <e0 Z="89" value=".00000000000000000E+000"/>
    <e0 Z="90" value=".00000000000000000E+000"/>
    <e0 Z="91" value=".00000000000000000E+000"/>
    <e0 Z="92" value=".00000000000000000E+000"/>
    <e0 Z="93" value=".00000000000000000E+000"/>
    <e0 Z="94" value=".00000000000000000E+000"/>
    <e0 Z="95" value=".00000000000000000E+000"/>
    <e0 Z="96" value=".00000000000000000E+000"/>
    <e0 Z="97" value=".00000000000000000E+000"/>
    <e0 Z="98" value=".00000000000000000E+000"/>
    <e0 Z="99" value=".00000000000000000E+000"/>
    <e0 Z="100" value=".00000000000000000E+000"/>
    <e0 Z="101" value=".00000000000000000E+000"/>
    <e0 Z="102" value=".00000000000000000E+000"/>
    <e0 Z="103" value=".00000000000000000E+000"/>
    <e0 Z="104" value=".00000000000000000E+000"/>
    <e0 Z="105" value=".00000000000000000E+000"/>
    <e0 Z="106" value=".00000000000000000E+000"/>
    <e0 Z="107" value=".00000000000000000E+000"/>
    <e0 Z="108" value=".00000000000000000E+000"/>
    <e0 Z="109" value=".00000000000000000E+000"/>
    <e0 Z="110" value=".00000000000000000E+000"/>
    <e0 Z="111" value=".00000000000000000E+000"/>
    <e0 Z="112" value=".00000000000000000E+000"/>
    <e0 Z="113" value=".00000000000000000E+000"/>
    <e0 Z="114" value=".00000000000000000E+000"/>
    <e0 Z="115" value=".00000000000000000E+000"/>
    <e0 Z="116" value=".00000000000000000E+000"/>
    <e0 Z="117" value=".00000000000000000E+000"/>
    <e0 Z="118" value=".00000000000000000E+000"/>
  </GAP_data>
  <gpSparse label="GAP_2026_4_17_180_12_22_36_526" n_coordinate="8" fitted="T">
    <gpCoordinates label="GAP_2026_4_17_180_12_22_36_5261" dimensions="1" signal_variance="10.000000000000000" signal_mean=".00000000000000000E+000" sparsified="T" n_permutations="1" covariance_type="1" n_sparseX="20" sparseX_filename="gap_Bi-Si.xml.sparseX.GAP_2026_4_17_180_12_22_36_5261" sparseX_md5sum="12ae896b3c5ac91bd2ec1af128f32544">
      <theta>  0.10000000000000000E+001 </theta>
      <descriptor>distance_2b cutoff=5.0 covariance_type=ard_se delta=10.0 theta_uniform=1.0 sparse_method=uniform n_sparse=20 print_sparse_index=sparse_indices_2b.out Z1=14 Z2=83 add_species=F</descriptor>
      <permutation i="1">1  </permutation>
      <sparseX i="1" alpha="53477.725674185611" sparseCutoff="1.0000000000000000"/>
      <sparseX i="2" alpha="72682.259704704149" sparseCutoff="1.0000000000000000"/>
      <sparseX i="3" alpha="-57498.502235452950" sparseCutoff="1.0000000000000000"/>
      <sparseX i="4" alpha="-83626.048383599831" sparseCutoff="1.0000000000000000"/>
      <sparseX i="5" alpha="52150.864962836706" sparseCutoff="1.0000000000000000"/>
      <sparseX i="6" alpha="-312.83858033007226" sparseCutoff="1.0000000000000000"/>
      <sparseX i="7" alpha="-8554.8608690591518" sparseCutoff="1.0000000000000000"/>
      <sparseX i="8" alpha="31244.759695210985" sparseCutoff="1.0000000000000000"/>
      <sparseX i="9" alpha="-37104.130970540398" sparseCutoff=".72670876639565674"/>
      <sparseX i="10" alpha="-67805.420933707705" sparseCutoff="1.0000000000000000"/>
      <sparseX i="11" alpha="-18630.098601980299" sparseCutoff="1.0000000000000000"/>
      <sparseX i="12" alpha="81352.432720673110" sparseCutoff=".47390915793717958E-001"/>
      <sparseX i="13" alpha="-55256.993486934924" sparseCutoff="1.0000000000000000"/>
      <sparseX i="14" alpha="94733.037242593709" sparseCutoff="1.0000000000000000"/>
      <sparseX i="15" alpha="51558.515422537581" sparseCutoff="1.0000000000000000"/>
      <sparseX i="16" alpha="29857.614294414212" sparseCutoff="1.0000000000000000"/>
      <sparseX i="17" alpha="-83555.162289821950" sparseCutoff="1.0000000000000000"/>
      <sparseX i="18" alpha="83434.564642964280" sparseCutoff="1.0000000000000000"/>
      <sparseX i="19" alpha="-5311.5156147052558" sparseCutoff="1.0000000000000000"/>
      <sparseX i="20" alpha="-65443.639461262632" sparseCutoff="1.0000000000000000"/>
    </gpCoordinates>
    <gpCoordinates label="GAP_2026_4_17_180_12_22_36_5262" dimensions="1" signal_variance="10.000000000000000" signal_mean=".00000000000000000E+000" sparsified="T" n_permutations="1" covariance_type="1" n_sparseX="20" sparseX_filename="gap_Bi-Si.xml.sparseX.GAP_2026_4_17_180_12_22_36_5262" sparseX_md5sum="95b57ff8d4f9e2a12f8e447992e3c1aa">
      <theta>  0.10000000000000000E+001 </theta>
      <descriptor> distance_2b cutoff=5.0 covariance_type=ard_se delta=10.0 theta_uniform=1.0 sparse_method=uniform n_sparse=20 print_sparse_index=sparse_indices_2b.out Z1=83 Z2=83 add_species=F</descriptor>
      <permutation i="1">1  </permutation>
      <sparseX i="1" alpha="-2574.6358890444790" sparseCutoff="1.0000000000000000"/>
      <sparseX i="2" alpha="-510.71294585500453" sparseCutoff="1.0000000000000000"/>
      <sparseX i="3" alpha="337.41330569362833" sparseCutoff="1.0000000000000000"/>
      <sparseX i="4" alpha="-1118.5585725582882" sparseCutoff=".51630131308838867E-001"/>
      <sparseX i="5" alpha="-820.26838318036584" sparseCutoff=".13996932409797108"/>
      <sparseX i="6" alpha="3927.8058384320989" sparseCutoff="1.0000000000000000"/>
      <sparseX i="7" alpha="-607.43065839885719" sparseCutoff="1.0000000000000000"/>
      <sparseX i="8" alpha="687.01272631584493" sparseCutoff=".56423624861578170"/>
      <sparseX i="9" alpha="2421.4113191494216" sparseCutoff="1.0000000000000000"/>
      <sparseX i="10" alpha="-1063.4766494905300" sparseCutoff="1.0000000000000000"/>
      <sparseX i="11" alpha="337.94881446888718" sparseCutoff="1.0000000000000000"/>
      <sparseX i="12" alpha="6313.2131756346298" sparseCutoff="1.0000000000000000"/>
      <sparseX i="13" alpha="-228.76293650139348" sparseCutoff="1.0000000000000000"/>
      <sparseX i="14" alpha="10785.533345594027" sparseCutoff="1.0000000000000000"/>
      <sparseX i="15" alpha="1569.9459695429068" sparseCutoff="1.0000000000000000"/>
      <sparseX i="16" alpha="-15093.236167347090" sparseCutoff="1.0000000000000000"/>
      <sparseX i="17" alpha="-4607.8366712121460" sparseCutoff="1.0000000000000000"/>
      <sparseX i="18" alpha="-3418.3070103801583" sparseCutoff="1.0000000000000000"/>
      <sparseX i="19" alpha="-345.47407727149772" sparseCutoff="1.0000000000000000"/>
      <sparseX i="20" alpha="2542.0694724263112" sparseCutoff="1.0000000000000000"/>
    </gpCoordinates>
    <gpCoordinates label="GAP_2026_4_17_180_12_22_36_5263" dimensions="1" signal_variance="1.0000000000000000" signal_mean=".00000000000000000E+000" sparsified="T" n_permutations="1" covariance_type="1" n_sparseX="20" sparseX_filename="gap_Bi-Si.xml.sparseX.GAP_2026_4_17_180_12_22_36_5263" sparseX_md5sum="a5bd95a10d867b9b739c91818a4bbadd">
      <theta>  0.10000000000000000E+001 </theta>
      <descriptor> eam_density cutoff=5.0 pair_function=FSgen order=3 rmin=0.0 covariance_type=ard_se delta=1.0 theta_uniform=1.0 sparse_method=uniform n_sparse=20 print_sparse_index=sparse_indices_eam.out Z=83 add_species=F</descriptor>
      <permutation i="1">1  </permutation>
      <sparseX i="1" alpha="-2027.7277315365468" sparseCutoff="1.0000000000000000"/>
      <sparseX i="2" alpha="-16975.511700829677" sparseCutoff="1.0000000000000000"/>
      <sparseX i="3" alpha="-15943.173017045274" sparseCutoff="1.0000000000000000"/>
      <sparseX i="4" alpha="2087.4592519173425" sparseCutoff="1.0000000000000000"/>
      <sparseX i="5" alpha="22589.221867889526" sparseCutoff="1.0000000000000000"/>
      <sparseX i="6" alpha="24761.464310694009" sparseCutoff="1.0000000000000000"/>
      <sparseX i="7" alpha="-5955.2038739114259" sparseCutoff="1.0000000000000000"/>
      <sparseX i="8" alpha="4873.7391121898399" sparseCutoff="1.0000000000000000"/>
      <sparseX i="9" alpha="-313.86734528752953" sparseCutoff="1.0000000000000000"/>
      <sparseX i="10" alpha="-4950.2741157489991" sparseCutoff="1.0000000000000000"/>
      <sparseX i="11" alpha="13262.196708041954" sparseCutoff="1.0000000000000000"/>
      <sparseX i="12" alpha="-12819.354595900539" sparseCutoff="1.0000000000000000"/>
      <sparseX i="13" alpha="11209.999856361737" sparseCutoff="1.0000000000000000"/>
      <sparseX i="14" alpha="-2377.3083962089463" sparseCutoff="1.0000000000000000"/>
      <sparseX i="15" alpha="-17210.745788823981" sparseCutoff="1.0000000000000000"/>
      <sparseX i="16" alpha="-35814.617929218904" sparseCutoff="1.0000000000000000"/>
      <sparseX i="17" alpha="-27259.971780221498" sparseCutoff="1.0000000000000000"/>
      <sparseX i="18" alpha="40644.087237769549" sparseCutoff="1.0000000000000000"/>
      <sparseX i="19" alpha="21566.056527269302" sparseCutoff="1.0000000000000000"/>
      <sparseX i="20" alpha="776.02185927918242" sparseCutoff="1.0000000000000000"/>
    </gpCoordinates>
    <gpCoordinates label="GAP_2026_4_17_180_12_22_36_5264" dimensions="3" signal_variance=".10000000000000001E+000" signal_mean=".00000000000000000E+000" sparsified="T" n_permutations="1" covariance_type="1" n_sparseX="600" sparseX_filename="gap_Bi-Si.xml.sparseX.GAP_2026_4_17_180_12_22_36_5264" sparseX_md5sum="a9f0feb6a31c548b82214214099ecdda">
      <theta>  0.10000000000000000E+001  0.10000000000000000E+001  0.10000000000000000E+001 </theta>
      <descriptor> angle_3b cutoff=4.5 cutoff_transition_width=0.6 n_sparse=600 covariance_type=ard_se delta=0.1 theta_uniform=1.0 sparse_method=uniform print_sparse_index=sparse_indices_3b.out Z=14 Z1=83 Z2=83 add_species=F</descriptor>
      <permutation i="1">1 2 3  </permutation>
      <sparseX i="1" alpha="24289.190434087566" sparseCutoff="1.0000000000000000"/>
      <sparseX i="2" alpha="28.565893315620691" sparseCutoff=".35762809663410137E-004"/>
      <sparseX i="3" alpha="4685.2239906884697" sparseCutoff="1.0000000000000000"/>
      <sparseX i="4" alpha="-1163.1027134400756" sparseCutoff="1.0000000000000000"/>
      <sparseX i="5" alpha="5307.8717998634420" sparseCutoff=".13453768070381653E-001"/>
      <sparseX i="6" alpha=".90750954061035838" sparseCutoff=".10818859692707916E-005"/>
      <sparseX i="7" alpha="182.66146340756424" sparseCutoff=".22576014715554722E-003"/>
      <sparseX i="8" alpha="13175.586301108735" sparseCutoff=".14854441298897228E-001"/>
      <sparseX i="9" alpha="-6313.6579925878286" sparseCutoff=".98942432182208262"/>
      <sparseX i="10" alpha="-4715.4592195101213" sparseCutoff=".89830757106619208"/>
      <sparseX i="11" alpha="-4348.6134640120308" sparseCutoff="1.0000000000000000"/>
      <sparseX i="12" alpha="-8230.8833616690754" sparseCutoff="1.0000000000000000"/>
      <sparseX i="13" alpha="14686.789288184125" sparseCutoff="1.0000000000000000"/>
      <sparseX i="14" alpha="5823.9957281752859" sparseCutoff=".90775247583694763"/>
      <sparseX i="15" alpha="4928.3340779154942" sparseCutoff=".57751178839334305"/>
      <sparseX i="16" alpha="2511.1582972595252" sparseCutoff="1.0000000000000000"/>
      <sparseX i="17" alpha="3167.6425716295166" sparseCutoff="1.0000000000000000"/>
      <sparseX i="18" alpha="8252.5639859065650" sparseCutoff="1.0000000000000000"/>
      <sparseX i="19" alpha="-9669.9239073379231" sparseCutoff="1.0000000000000000"/>
      <sparseX i="20" alpha="-732.86253898931545" sparseCutoff="1.0000000000000000"/>
      <sparseX i="21" alpha="19715.039971023314" sparseCutoff=".43402502897366407"/>
      <sparseX i="22" alpha="11605.331450950416" sparseCutoff="1.0000000000000000"/>
      <sparseX i="23" alpha="-2292.9584877401194" sparseCutoff=".18506479480313004E-001"/>
      <sparseX i="24" alpha="-5737.6156397206269" sparseCutoff="1.0000000000000000"/>
      <sparseX i="25" alpha="-11655.464041408848" sparseCutoff=".89815482888272943E-001"/>
      <sparseX i="26" alpha="-27349.289577788422" sparseCutoff="1.0000000000000000"/>
      <sparseX i="27" alpha="426.02427321183234" sparseCutoff=".83886470684454257E-003"/>
      <sparseX i="28" alpha="-3940.7397147463471" sparseCutoff="1.0000000000000000"/>
      <sparseX i="29" alpha="264.62672057504227" sparseCutoff=".71118114806575591E-003"/>
      <sparseX i="30" alpha="9153.7147415760937" sparseCutoff=".34246113688594454"/>
      <sparseX i="31" alpha="-6446.2326190728527" sparseCutoff=".31103228866497756"/>
      <sparseX i="32" alpha="17251.916906172017" sparseCutoff=".28561023641513972E-001"/>
      <sparseX i="33" alpha="908.71871955891959" sparseCutoff=".98084574991863793E-001"/>
      <sparseX i="34" alpha="-4207.1652501368862" sparseCutoff=".33026566369281618"/>
      <sparseX i="35" alpha="8810.1594750303539" sparseCutoff=".40783966046417472E-001"/>
      <sparseX i="36" alpha="516.24988514007202" sparseCutoff=".36926147374432162E-003"/>
      <sparseX i="37" alpha=".45241180793559993" sparseCutoff=".29593626405479847E-006"/>
      <sparseX i="38" alpha="-10777.917085847725" sparseCutoff=".68548139654840023E-001"/>
      <sparseX i="39" alpha="-1312.7649841551056" sparseCutoff=".52147308214397681"/>
      <sparseX i="40" alpha="8951.8776699187583" sparseCutoff=".20761188766523442"/>
      <sparseX i="41" alpha="10498.189331696571" sparseCutoff=".99715547255639003"/>
      <sparseX i="42" alpha="-11107.809854547804" sparseCutoff="1.0000000000000000"/>
      <sparseX i="43" alpha="-27546.392047173984" sparseCutoff=".94861553634393025E-001"/>
      <sparseX i="44" alpha="970.29967850519768" sparseCutoff=".99347266537629930E-002"/>
      <sparseX i="45" alpha="10733.080657997281" sparseCutoff=".61215294607495196"/>
      <sparseX i="46" alpha="-2740.8632215933981" sparseCutoff=".26110685439866055E-001"/>
      <sparseX i="47" alpha="-1939.5587882197801" sparseCutoff="1.0000000000000000"/>
      <sparseX i="48" alpha="-1910.8203262156355" sparseCutoff=".28882028244946545"/>
      <sparseX i="49" alpha="9127.2768336891386" sparseCutoff="1.0000000000000000"/>
      <sparseX i="50" alpha="863.00657356911472" sparseCutoff="1.0000000000000000"/>
      <sparseX i="51" alpha="7815.2459976858399" sparseCutoff="1.0000000000000000"/>
      <sparseX i="52" alpha="-2132.8799201163069" sparseCutoff=".84389618112972564"/>
      <sparseX i="53" alpha="2872.0301781933258" sparseCutoff=".27245582142501612E-002"/>
      <sparseX i="54" alpha="-8691.3701999466721" sparseCutoff="1.0000000000000000"/>
      <sparseX i="55" alpha="-922.05717501905940" sparseCutoff="1.0000000000000000"/>
      <sparseX i="56" alpha="-3653.1136523200908" sparseCutoff="1.0000000000000000"/>
      <sparseX i="57" alpha="1948.5194536841268" sparseCutoff="1.0000000000000000"/>
      <sparseX i="58" alpha="8295.8244537489918" sparseCutoff=".24418899439350605E-001"/>
      <sparseX i="59" alpha="8055.9045315180674" sparseCutoff="1.0000000000000000"/>
      <sparseX i="60" alpha="3088.4452332035289" sparseCutoff=".99535279676315669"/>
      <sparseX i="61" alpha="5626.5240641550863" sparseCutoff=".48500834691720612"/>
      <sparseX i="62" alpha="-1079.6665805009327" sparseCutoff=".49481818087857399E-001"/>
      <sparseX i="63" alpha="1962.7294493680304" sparseCutoff=".49068574834719986"/>
      <sparseX i="64" alpha="354.86279874863828" sparseCutoff=".83304755141400122E-004"/>
      <sparseX i="65" alpha="-255.24880277547794" sparseCutoff="1.0000000000000000"/>
      <sparseX i="66" alpha="-1993.2372584423535" sparseCutoff="1.0000000000000000"/>
      <sparseX i="67" alpha="6014.6501484977844" sparseCutoff="1.0000000000000000"/>
      <sparseX i="68" alpha="5543.1624316988709" sparseCutoff="1.0000000000000000"/>
      <sparseX i="69" alpha="-5001.7893971513222" sparseCutoff=".59729534433020093"/>
      <sparseX i="70" alpha="6797.5805256716176" sparseCutoff=".51746739456103641E-001"/>
      <sparseX i="71" alpha="3142.1903428821447" sparseCutoff=".66330829214070763"/>
      <sparseX i="72" alpha="-438.82556238814141" sparseCutoff="1.0000000000000000"/>
      <sparseX i="73" alpha="-5086.9358343109225" sparseCutoff="1.0000000000000000"/>
      <sparseX i="74" alpha="-3371.6206967080225" sparseCutoff=".99136262569994349"/>
      <sparseX i="75" alpha="167.44950090996844" sparseCutoff=".56369852942055876E-002"/>
      <sparseX i="76" alpha="11920.855049836118" sparseCutoff=".10892308131531081E-001"/>
      <sparseX i="77" alpha="-1897.1943192258152" sparseCutoff=".98906725532779648E-002"/>
      <sparseX i="78" alpha="6152.3210568314580" sparseCutoff=".50559175987591187E-002"/>
      <sparseX i="79" alpha="-946.98924712777546" sparseCutoff=".28609720796443083E-002"/>
      <sparseX i="80" alpha="-4303.3001100154725" sparseCutoff="1.0000000000000000"/>
      <sparseX i="81" alpha="-8122.2958588323827" sparseCutoff="1.0000000000000000"/>
      <sparseX i="82" alpha="-2629.8279905813033" sparseCutoff=".12614342054956651E-001"/>
      <sparseX i="83" alpha="48.542991716029988" sparseCutoff=".10820697838285376E-001"/>
      <sparseX i="84" alpha="-9207.0237827889123" sparseCutoff=".12254816122531709E-001"/>
      <sparseX i="85" alpha="-1767.8741641410300" sparseCutoff="1.0000000000000000"/>
      <sparseX i="86" alpha="14614.117337613898" sparseCutoff=".62677434656456033E-001"/>
      <sparseX i="87" alpha="-1265.9837482678545" sparseCutoff="1.0000000000000000"/>
      <sparseX i="88" alpha="535.22528324940663" sparseCutoff="1.0000000000000000"/>
      <sparseX i="89" alpha="-2698.2537084256110" sparseCutoff="1.0000000000000000"/>
      <sparseX i="90" alpha="-5742.9795747336057" sparseCutoff="1.0000000000000000"/>
      <sparseX i="91" alpha="-6471.9946363762092" sparseCutoff=".53684209775899328E-001"/>
      <sparseX i="92" alpha="-6174.7543430359738" sparseCutoff="1.0000000000000000"/>
      <sparseX i="93" alpha="-1764.0749229295229" sparseCutoff=".97809103236719253"/>
      <sparseX i="94" alpha="444.84514776923345" sparseCutoff="1.0000000000000000"/>
      <sparseX i="95" alpha="-2964.8167561704763" sparseCutoff="1.0000000000000000"/>
      <sparseX i="96" alpha="-1119.9785842841543" sparseCutoff=".94885789470286697"/>
      <sparseX i="97" alpha="-2013.3040901989493" sparseCutoff=".52713598804943107"/>
      <sparseX i="98" alpha="-5469.1033800377691" sparseCutoff=".90754534880480076E-001"/>
      <sparseX i="99" alpha="-1823.4001444863900" sparseCutoff="1.0000000000000000"/>
      <sparseX i="100" alpha="-1496.8707476168893" sparseCutoff="1.0000000000000000"/>
      <sparseX i="101" alpha="-753.68005338998864" sparseCutoff=".94797544766466801"/>
      <sparseX i="102" alpha="3712.6196804656715" sparseCutoff="1.0000000000000000"/>
      <sparseX i="103" alpha="-8186.2820501359201" sparseCutoff=".11947597549052280E-001"/>
      <sparseX i="104" alpha="-2657.5985100024377" sparseCutoff=".87072598332239060"/>
      <sparseX i="105" alpha="-2417.3622456235507" sparseCutoff=".23653091229437337E-002"/>
      <sparseX i="106" alpha="-115.42475155837647" sparseCutoff=".24207609223090247E-003"/>
      <sparseX i="107" alpha="-4097.3170894970117" sparseCutoff=".60812840266456667E-002"/>
      <sparseX i="108" alpha="-294.65332234170103" sparseCutoff=".62238523440202767E-003"/>
      <sparseX i="109" alpha="-3169.5092666923838" sparseCutoff="1.0000000000000000"/>
      <sparseX i="110" alpha="-5255.4460634685074" sparseCutoff=".53771001465342982"/>
      <sparseX i="111" alpha="2002.2659989007143" sparseCutoff=".29182419331553744E-002"/>
      <sparseX i="112" alpha="-4480.7758196687319" sparseCutoff="1.0000000000000000"/>
      <sparseX i="113" alpha="2240.8437732783636" sparseCutoff="1.0000000000000000"/>
      <sparseX i="114" alpha="2737.8934114945887" sparseCutoff="1.0000000000000000"/>
      <sparseX i="115" alpha="-2771.0614642339906" sparseCutoff="1.0000000000000000"/>
      <sparseX i="116" alpha="-2446.2086559355512" sparseCutoff=".49223775632038680"/>
      <sparseX i="117" alpha="1.0259516442770422" sparseCutoff=".27809714161358719E-005"/>
      <sparseX i="118" alpha="-9417.0999967745847" sparseCutoff="1.0000000000000000"/>
      <sparseX i="119" alpha="-70.082774315357852" sparseCutoff=".11491184353840682E-003"/>
      <sparseX i="120" alpha="-2053.1530371328754" sparseCutoff=".99969123187644737"/>
      <sparseX i="121" alpha="-6038.1700919658942" sparseCutoff=".99951958732903112"/>
      <sparseX i="122" alpha="8835.2037688812507" sparseCutoff=".32103657764372406E-001"/>
      <sparseX i="123" alpha="-321.26096229923803" sparseCutoff="1.0000000000000000"/>
      <sparseX i="124" alpha="6003.1086815813615" sparseCutoff=".48647961155004998"/>
      <sparseX i="125" alpha="607.43334457128935" sparseCutoff=".56835217602603549"/>
      <sparseX i="126" alpha="415.67830615181435" sparseCutoff="1.0000000000000000"/>
      <sparseX i="127" alpha="-12623.939484564286" sparseCutoff="1.0000000000000000"/>
      <sparseX i="128" alpha="-4286.1814811063050" sparseCutoff=".99655681236439175"/>
      <sparseX i="129" alpha="-6880.3598629965581" sparseCutoff=".84871430486845867E-002"/>
      <sparseX i="130" alpha="-556.10765526326736" sparseCutoff=".41172061173451779"/>
      <sparseX i="131" alpha="2600.7807202231065" sparseCutoff="1.0000000000000000"/>
      <sparseX i="132" alpha="1392.1483427199607" sparseCutoff=".80084319045639096"/>
      <sparseX i="133" alpha="-2855.8284370300221" sparseCutoff=".57963454051636054E-002"/>
      <sparseX i="134" alpha="-3755.5065028666368" sparseCutoff=".68222759279536571"/>
      <sparseX i="135" alpha="-20233.018023326855" sparseCutoff=".68222759279536571"/>
      <sparseX i="136" alpha="472.78084479557253" sparseCutoff=".78166716463558272E-002"/>
      <sparseX i="137" alpha="5772.3547097101164" sparseCutoff="1.0000000000000000"/>
      <sparseX i="138" alpha="-1810.1526360372770" sparseCutoff=".14996012393813374E-001"/>
      <sparseX i="139" alpha="-2260.5016914386961" sparseCutoff="1.0000000000000000"/>
      <sparseX i="140" alpha="-4418.5223454751058" sparseCutoff=".97662796388067119"/>
      <sparseX i="141" alpha="-3592.1976848748118" sparseCutoff="1.0000000000000000"/>
      <sparseX i="142" alpha="-5042.2979953162248" sparseCutoff="1.0000000000000000"/>
      <sparseX i="143" alpha="-1202.9369853289818" sparseCutoff="1.0000000000000000"/>
      <sparseX i="144" alpha="435.84179042912245" sparseCutoff=".95851434386334555"/>
      <sparseX i="145" alpha="1007.1594334559161" sparseCutoff="1.0000000000000000"/>
      <sparseX i="146" alpha="-2915.8055145245730" sparseCutoff=".33320021524546719E-002"/>
      <sparseX i="147" alpha="-173.25413629257719" sparseCutoff=".17491926697234278E-003"/>
      <sparseX i="148" alpha="1196.8023054280145" sparseCutoff=".40777213166218185E-002"/>
      <sparseX i="149" alpha="-2453.9090589221205" sparseCutoff=".63419771982527218"/>
      <sparseX i="150" alpha="-15485.602202116828" sparseCutoff=".49697630509327501"/>
      <sparseX i="151" alpha="-1337.9336830280301" sparseCutoff="1.0000000000000000"/>
      <sparseX i="152" alpha="6982.3224231174036" sparseCutoff="1.0000000000000000"/>
      <sparseX i="153" alpha="66.125500040901102" sparseCutoff=".19030164083933765E-001"/>
      <sparseX i="154" alpha="169.66367698269903" sparseCutoff=".50118723873844306E-002"/>
      <sparseX i="155" alpha="3111.5951067708484" sparseCutoff="1.0000000000000000"/>
      <sparseX i="156" alpha="-3.2799278016199112" sparseCutoff=".51736465761767058E-005"/>
      <sparseX i="157" alpha="-1043.3821476446267" sparseCutoff="1.0000000000000000"/>
      <sparseX i="158" alpha="-2146.6859584910549" sparseCutoff=".56743639614125818E-001"/>
      <sparseX i="159" alpha="2409.4088568057409" sparseCutoff=".18736917952721505"/>
      <sparseX i="160" alpha="2924.4129849221081" sparseCutoff=".96377964505333846"/>
      <sparseX i="161" alpha="-5235.9500006166627" sparseCutoff="1.0000000000000000"/>
      <sparseX i="162" alpha="-.67921113228610419" sparseCutoff=".99624997069941745"/>
      <sparseX i="163" alpha="-3160.6402437580241" sparseCutoff="1.0000000000000000"/>
      <sparseX i="164" alpha="-849.03231771315109" sparseCutoff=".99999261621666358"/>
      <sparseX i="165" alpha="-306.78935417378369" sparseCutoff=".99441571711912990"/>
      <sparseX i="166" alpha="810.83088261153398" sparseCutoff="1.0000000000000000"/>
      <sparseX i="167" alpha="-2272.2764076020226" sparseCutoff=".88944074701343734"/>
      <sparseX i="168" alpha="-824.35881892124200" sparseCutoff=".66802632485432534"/>
      <sparseX i="169" alpha="-3145.4678927531736" sparseCutoff=".23196136672857653"/>
      <sparseX i="170" alpha="-3803.2566590264528" sparseCutoff="1.0000000000000000"/>
      <sparseX i="171" alpha="1902.2857076780970" sparseCutoff=".79129608103468141E-002"/>
      <sparseX i="172" alpha="6592.0540783575616" sparseCutoff=".99945965635427225"/>
      <sparseX i="173" alpha="-3920.5904133652498" sparseCutoff="1.0000000000000000"/>
      <sparseX i="174" alpha="-6365.0263999094377" sparseCutoff="1.0000000000000000"/>
      <sparseX i="175" alpha="-2924.5049574860686" sparseCutoff=".99793593424421201"/>
      <sparseX i="176" alpha="862.98643854685520" sparseCutoff=".71729982127161285"/>
      <sparseX i="177" alpha="1690.5044503419031" sparseCutoff="1.0000000000000000"/>
      <sparseX i="178" alpha="5659.0719153604987" sparseCutoff="1.0000000000000000"/>
      <sparseX i="179" alpha="-2597.6002478180985" sparseCutoff=".43038737342723232E-002"/>
      <sparseX i="180" alpha="3622.1854514744427" sparseCutoff="1.0000000000000000"/>
      <sparseX i="181" alpha="-3878.9599769380416" sparseCutoff="1.0000000000000000"/>
      <sparseX i="182" alpha="-.69505166865502746E-001" sparseCutoff=".35977611110359280E-006"/>
      <sparseX i="183" alpha="15.346946114495372" sparseCutoff=".16858065351250267E-004"/>
      <sparseX i="184" alpha="-2099.0388420196259" sparseCutoff=".81906431441206062"/>
      <sparseX i="185" alpha="-1329.4183863330022" sparseCutoff="1.0000000000000000"/>
      <sparseX i="186" alpha="5561.1034524211782" sparseCutoff=".13345510891285162E-001"/>
      <sparseX i="187" alpha="-7446.5557548104543" sparseCutoff=".15361507931248020E-001"/>
      <sparseX i="188" alpha="-4732.9432686650071" sparseCutoff="1.0000000000000000"/>
      <sparseX i="189" alpha="20844.240474202379" sparseCutoff=".44832829424365406"/>
      <sparseX i="190" alpha="-3800.2200476844141" sparseCutoff="1.0000000000000000"/>
      <sparseX i="191" alpha="648.43010687063509" sparseCutoff=".24907531134109877E-002"/>
      <sparseX i="192" alpha="-651.44701862159275" sparseCutoff=".46169459634462983E-002"/>
      <sparseX i="193" alpha="178.10812853416147" sparseCutoff=".14400321331619059E-002"/>
      <sparseX i="194" alpha="167.53296228004436" sparseCutoff=".12471000170862778E-002"/>
      <sparseX i="195" alpha="2237.0931513776227" sparseCutoff=".13989012247346444E-001"/>
      <sparseX i="196" alpha="-4595.5816424840095" sparseCutoff=".94949537219266966E-001"/>
      <sparseX i="197" alpha="6864.8201344890795" sparseCutoff=".93602458676442568"/>
      <sparseX i="198" alpha="2411.7154304668711" sparseCutoff=".15198212461070448E-001"/>
      <sparseX i="199" alpha="806.57897963466132" sparseCutoff=".27944966416273975E-002"/>
      <sparseX i="200" alpha="-5089.5604651489684" sparseCutoff=".73755855566403394"/>
      <sparseX i="201" alpha="-5242.8049758669422" sparseCutoff=".83228568299124894"/>
      <sparseX i="202" alpha="-3091.4036656951471" sparseCutoff="1.0000000000000000"/>
      <sparseX i="203" alpha="-1601.9653021016634" sparseCutoff=".97383464031668054"/>
      <sparseX i="204" alpha="-73.560679308737278" sparseCutoff="1.0000000000000000"/>
      <sparseX i="205" alpha="1198.9890818944930" sparseCutoff=".95778983386259009"/>
      <sparseX i="206" alpha="1374.3508052017200" sparseCutoff=".46439635613073849E-001"/>
      <sparseX i="207" alpha="-9619.1321818278539" sparseCutoff="1.0000000000000000"/>
      <sparseX i="208" alpha="-3644.1626510837646" sparseCutoff=".82985968010699551"/>
      <sparseX i="209" alpha="4305.9545101376661" sparseCutoff=".92451817156948279"/>
      <sparseX i="210" alpha="2106.6241128264837" sparseCutoff="1.0000000000000000"/>
      <sparseX i="211" alpha="-6754.0303070429836" sparseCutoff=".19615466434769574"/>
      <sparseX i="212" alpha="-4081.8488112178838" sparseCutoff="1.0000000000000000"/>
      <sparseX i="213" alpha="652.70871561200568" sparseCutoff=".91543832492064237"/>
      <sparseX i="214" alpha="-401.53834801268681" sparseCutoff=".51382123922367184E-002"/>
      <sparseX i="215" alpha="3652.6363478173807" sparseCutoff=".98943605819294700"/>
      <sparseX i="216" alpha="5738.5660325238368" sparseCutoff="1.0000000000000000"/>
      <sparseX i="217" alpha="-2252.3745518804553" sparseCutoff=".19188345332043055E-001"/>
      <sparseX i="218" alpha="3282.7843844902286" sparseCutoff=".99923341826425172"/>
      <sparseX i="219" alpha="-196.65778063463168" sparseCutoff="1.0000000000000000"/>
      <sparseX i="220" alpha="-148.01531311177459" sparseCutoff=".83022989211618659"/>
      <sparseX i="221" alpha="-1769.8251165653292" sparseCutoff="1.0000000000000000"/>
      <sparseX i="222" alpha="-1178.2650298824424" sparseCutoff=".99319021134265384"/>
      <sparseX i="223" alpha="-709.26970912081208" sparseCutoff=".30298736976139330E-002"/>
      <sparseX i="224" alpha="-8883.9161544028157" sparseCutoff=".99865008026910962"/>
      <sparseX i="225" alpha="-59.864315686510103" sparseCutoff="1.0000000000000000"/>
      <sparseX i="226" alpha="-696.40838285237533" sparseCutoff=".14677553184389014E-002"/>
      <sparseX i="227" alpha="-680.88183938510394" sparseCutoff=".94716815565583712"/>
      <sparseX i="228" alpha="5472.4160177165804" sparseCutoff="1.0000000000000000"/>
      <sparseX i="229" alpha="1638.7912503199091" sparseCutoff=".13842111298607851E-001"/>
      <sparseX i="230" alpha="5025.0072174277284" sparseCutoff=".17203867173166743E-001"/>
      <sparseX i="231" alpha="-2124.1346439088834" sparseCutoff="1.0000000000000000"/>
      <sparseX i="232" alpha="353.26811332693205" sparseCutoff="1.0000000000000000"/>
      <sparseX i="233" alpha="-342.53920842697534" sparseCutoff="1.0000000000000000"/>
      <sparseX i="234" alpha="920.21090248659868" sparseCutoff=".45002567131892235"/>
      <sparseX i="235" alpha="1864.8862361042777" sparseCutoff="1.0000000000000000"/>
      <sparseX i="236" alpha="1549.3719627765247" sparseCutoff="1.0000000000000000"/>
      <sparseX i="237" alpha="-223.74005319838557" sparseCutoff=".91613745520982914"/>
      <sparseX i="238" alpha="-3004.9424864853950" sparseCutoff=".10551195817166181E-001"/>
      <sparseX i="239" alpha="927.45243504918244" sparseCutoff=".99372747048811561"/>
      <sparseX i="240" alpha="14154.415549648349" sparseCutoff="1.0000000000000000"/>
      <sparseX i="241" alpha="-1324.3641458142015" sparseCutoff=".15763931781499513E-002"/>
      <sparseX i="242" alpha="-125.16827233538920" sparseCutoff="1.0000000000000000"/>
      <sparseX i="243" alpha="5067.4154326376065" sparseCutoff=".99846124437892314"/>
      <sparseX i="244" alpha="13314.956559847682" sparseCutoff="1.0000000000000000"/>
      <sparseX i="245" alpha="-3783.0786740712911" sparseCutoff=".97233951370605287"/>
      <sparseX i="246" alpha="1890.1956105729819" sparseCutoff="1.0000000000000000"/>
      <sparseX i="247" alpha="-1091.2974170637474" sparseCutoff=".99197785904229252"/>
      <sparseX i="248" alpha="705.26841033518201" sparseCutoff="1.0000000000000000"/>
      <sparseX i="249" alpha="-3149.3388468236803" sparseCutoff=".61720696232660266"/>
      <sparseX i="250" alpha="4912.4725544914400" sparseCutoff="1.0000000000000000"/>
      <sparseX i="251" alpha="-817.07086633714198" sparseCutoff="1.0000000000000000"/>
      <sparseX i="252" alpha="4534.8556897366507" sparseCutoff="1.0000000000000000"/>
      <sparseX i="253" alpha="201.99296076071903" sparseCutoff="1.0000000000000000"/>
      <sparseX i="254" alpha="550.62341621250448" sparseCutoff=".23083879736272406E-001"/>
      <sparseX i="255" alpha="-1004.4175359115551" sparseCutoff=".91935337126597405E-003"/>
      <sparseX i="256" alpha="2549.5872224757986" sparseCutoff=".26636245248324555E-001"/>
      <sparseX i="257" alpha="1833.2159761567998" sparseCutoff="1.0000000000000000"/>
      <sparseX i="258" alpha="4222.7778520085039" sparseCutoff="1.0000000000000000"/>
      <sparseX i="259" alpha="2074.1370395728695" sparseCutoff=".45910766436410749"/>
      <sparseX i="260" alpha="263.62097734322248" sparseCutoff=".82045335655167584E-003"/>
      <sparseX i="261" alpha="-1906.5464926790630" sparseCutoff="1.0000000000000000"/>
      <sparseX i="262" alpha="368.15400773121462" sparseCutoff="1.0000000000000000"/>
      <sparseX i="263" alpha="-1030.0937089833121" sparseCutoff=".97667300485824904"/>
      <sparseX i="264" alpha="-5144.0374132161205" sparseCutoff="1.0000000000000000"/>
      <sparseX i="265" alpha="2104.8531518584177" sparseCutoff=".76692200759605167"/>
      <sparseX i="266" alpha="2501.2085743584826" sparseCutoff="1.0000000000000000"/>
      <sparseX i="267" alpha="4785.7999850482056" sparseCutoff=".96930146376873472E-002"/>
      <sparseX i="268" alpha="1074.7697225137629" sparseCutoff=".20962583671450652E-001"/>
      <sparseX i="269" alpha="7945.5757643559382" sparseCutoff="1.0000000000000000"/>
      <sparseX i="270" alpha="1870.0095689681689" sparseCutoff=".81616094089968771"/>
      <sparseX i="271" alpha="1505.5545914457662" sparseCutoff=".98885488679337441"/>
      <sparseX i="272" alpha="1136.2022413035515" sparseCutoff=".72050267327250506E-003"/>
      <sparseX i="273" alpha="1397.3494057578898" sparseCutoff=".99907052129956531"/>
      <sparseX i="274" alpha="54.798300328456797" sparseCutoff=".64189310670661215"/>
      <sparseX i="275" alpha="3356.5070299380377" sparseCutoff="1.0000000000000000"/>
      <sparseX i="276" alpha="3213.4102081875290" sparseCutoff=".48305893280684575E-002"/>
      <sparseX i="277" alpha="-5243.5200962246654" sparseCutoff=".87075082541524917"/>
      <sparseX i="278" alpha="5845.3624108848771" sparseCutoff=".13133448790898311"/>
      <sparseX i="279" alpha="379.98450350924202" sparseCutoff="1.0000000000000000"/>
      <sparseX i="280" alpha="-6750.3152219143303" sparseCutoff=".97869220733225570"/>
      <sparseX i="281" alpha="-7781.6403499713133" sparseCutoff="1.0000000000000000"/>
      <sparseX i="282" alpha="-1654.0036590496845" sparseCutoff="1.0000000000000000"/>
      <sparseX i="283" alpha="1981.0960324678913" sparseCutoff=".38021244086307035E-002"/>
      <sparseX i="284" alpha="-1143.8100048825447" sparseCutoff="1.0000000000000000"/>
      <sparseX i="285" alpha="-555.02260807438961" sparseCutoff="1.0000000000000000"/>
      <sparseX i="286" alpha="-2896.5462225124056" sparseCutoff="1.0000000000000000"/>
      <sparseX i="287" alpha="6397.6116919661135" sparseCutoff=".88113019913796620"/>
      <sparseX i="288" alpha="352.59953101126422" sparseCutoff=".25826827120133400E-001"/>
      <sparseX i="289" alpha="-1351.2708673936058" sparseCutoff=".50375419241011445E-001"/>
      <sparseX i="290" alpha="1328.1260488823814" sparseCutoff="1.0000000000000000"/>
      <sparseX i="291" alpha="934.79479366770420" sparseCutoff=".94681614023678362E-003"/>
      <sparseX i="292" alpha="44.108844722097167" sparseCutoff=".29465126397859587E-003"/>
      <sparseX i="293" alpha="-454.54615847842024" sparseCutoff="1.0000000000000000"/>
      <sparseX i="294" alpha="-4085.0144468852377" sparseCutoff="1.0000000000000000"/>
      <sparseX i="295" alpha="3632.3006675981146" sparseCutoff="1.0000000000000000"/>
      <sparseX i="296" alpha="14895.166114615013" sparseCutoff=".90161953154683894E-001"/>
      <sparseX i="297" alpha="-4746.5224022374368" sparseCutoff=".35209798462660880"/>
      <sparseX i="298" alpha="-227.05732652179250" sparseCutoff="1.0000000000000000"/>
      <sparseX i="299" alpha="1098.5028245621236" sparseCutoff=".82619872054428289"/>
      <sparseX i="300" alpha="-6310.0873058778652" sparseCutoff=".99999891210408731"/>
      <sparseX i="301" alpha="-795.76024832349128" sparseCutoff=".47816826208858854E-001"/>
      <sparseX i="302" alpha="-4085.5444931127795" sparseCutoff=".97546232970479863"/>
      <sparseX i="303" alpha="7138.5390898093556" sparseCutoff="1.0000000000000000"/>
      <sparseX i="304" alpha="7094.2648933736782" sparseCutoff=".42523544169787098E-001"/>
      <sparseX i="305" alpha="488.90851134305422" sparseCutoff=".11727290127280243E-002"/>
      <sparseX i="306" alpha="-3709.1413606995525" sparseCutoff=".80359940723392143"/>
      <sparseX i="307" alpha="8295.2624329257851" sparseCutoff="1.0000000000000000"/>
      <sparseX i="308" alpha="-1232.8601419100664" sparseCutoff="1.0000000000000000"/>
      <sparseX i="309" alpha="-11542.336228971091" sparseCutoff=".98486172923487425"/>
      <sparseX i="310" alpha="14332.178363351923" sparseCutoff=".22899039158336187E-001"/>
      <sparseX i="311" alpha="2349.0873923294030" sparseCutoff=".37593386262287087E-001"/>
      <sparseX i="312" alpha="4102.7246772863336" sparseCutoff=".24838039174702037"/>
      <sparseX i="313" alpha="269.97278598179702" sparseCutoff=".73350408829926494E-001"/>
      <sparseX i="314" alpha="-7570.5256106131601" sparseCutoff=".59087617838886913E-001"/>
      <sparseX i="315" alpha="508.88047095773749" sparseCutoff=".63139760891501870E-002"/>
      <sparseX i="316" alpha="4750.3458240722875" sparseCutoff="1.0000000000000000"/>
      <sparseX i="317" alpha="2823.3125167560961" sparseCutoff=".16542437088510664E-001"/>
      <sparseX i="318" alpha="1711.4368039678595" sparseCutoff="1.0000000000000000"/>
      <sparseX i="319" alpha="-2146.3882576422443" sparseCutoff="1.0000000000000000"/>
      <sparseX i="320" alpha="2150.6752286802575" sparseCutoff=".46024346387919685"/>
      <sparseX i="321" alpha="5742.1025338705531" sparseCutoff=".39165973509923679E-001"/>
      <sparseX i="322" alpha="2106.9331033987019" sparseCutoff=".86051752025636041"/>
      <sparseX i="323" alpha="-5288.7303077387096" sparseCutoff=".25429623852412098E-002"/>
      <sparseX i="324" alpha="4712.2666099306280" sparseCutoff="1.0000000000000000"/>
      <sparseX i="325" alpha="-2797.5762704645276" sparseCutoff=".11693866013345933E-001"/>
      <sparseX i="326" alpha="-946.43136809057796" sparseCutoff=".90252783339670373"/>
      <sparseX i="327" alpha="-3415.3622728115502" sparseCutoff=".32165516858049248E-002"/>
      <sparseX i="328" alpha="-1223.2620111421995" sparseCutoff=".30695420425412834"/>
      <sparseX i="329" alpha="-71.178924509447398" sparseCutoff="1.0000000000000000"/>
      <sparseX i="330" alpha="8767.0153846339526" sparseCutoff="1.0000000000000000"/>
      <sparseX i="331" alpha="-2013.5521777252543" sparseCutoff=".95458022457172587"/>
      <sparseX i="332" alpha="-2525.4158465378978" sparseCutoff="1.0000000000000000"/>
      <sparseX i="333" alpha="-211.08307513383559" sparseCutoff=".98666952193280810E-001"/>
      <sparseX i="334" alpha="5105.6581323506807" sparseCutoff=".91078332872591738"/>
      <sparseX i="335" alpha="1141.8747153565209" sparseCutoff="1.0000000000000000"/>
      <sparseX i="336" alpha="1507.5987919369859" sparseCutoff="1.0000000000000000"/>
      <sparseX i="337" alpha="-3268.2101565753587" sparseCutoff=".29885176866352725E-002"/>
      <sparseX i="338" alpha="-3602.5772591231294" sparseCutoff=".94883971245853127E-001"/>
      <sparseX i="339" alpha="-6.9116881042358527" sparseCutoff=".25082609666955968E-002"/>
      <sparseX i="340" alpha="5682.1645446080411" sparseCutoff=".13342608544358428"/>
      <sparseX i="341" alpha="4734.5408472051386" sparseCutoff=".15999658544493028"/>
      <sparseX i="342" alpha="-4444.8024257360048" sparseCutoff=".13396679573452752"/>
      <sparseX i="343" alpha="5764.2507045642024" sparseCutoff="1.0000000000000000"/>
      <sparseX i="344" alpha="3519.5818795240411" sparseCutoff="1.0000000000000000"/>
      <sparseX i="345" alpha="3165.3384863523570" sparseCutoff=".39175335488117558"/>
      <sparseX i="346" alpha="136.61855377182025" sparseCutoff=".89667790943931402E-003"/>
      <sparseX i="347" alpha="4831.5732322269023" sparseCutoff=".96360554912217689"/>
      <sparseX i="348" alpha="-193.99149086786127" sparseCutoff="1.0000000000000000"/>
      <sparseX i="349" alpha="-11937.988428916173" sparseCutoff="1.0000000000000000"/>
      <sparseX i="350" alpha="-889.23953509397290" sparseCutoff=".50788661304038696E-002"/>
      <sparseX i="351" alpha="3460.2361716139726" sparseCutoff=".94421448404447794"/>
      <sparseX i="352" alpha="1299.2411174478339" sparseCutoff="1.0000000000000000"/>
      <sparseX i="353" alpha="-5990.4604494772293" sparseCutoff=".63997969602313087"/>
      <sparseX i="354" alpha="16874.206446659780" sparseCutoff=".52907138524520381"/>
      <sparseX i="355" alpha="-2511.7577186996464" sparseCutoff="1.0000000000000000"/>
      <sparseX i="356" alpha="1809.8965069692397" sparseCutoff="1.0000000000000000"/>
      <sparseX i="357" alpha="1456.9451700745039" sparseCutoff="1.0000000000000000"/>
      <sparseX i="358" alpha="-789.65258961243603" sparseCutoff="1.0000000000000000"/>
      <sparseX i="359" alpha="1663.8994997550067" sparseCutoff=".90307564650747674"/>
      <sparseX i="360" alpha="-778.55270247112185" sparseCutoff=".99480584647806469"/>
      <sparseX i="361" alpha="1144.6211576861981" sparseCutoff="1.0000000000000000"/>
      <sparseX i="362" alpha="-1401.5457572351795" sparseCutoff="1.0000000000000000"/>
      <sparseX i="363" alpha="-1605.4636939503898" sparseCutoff="1.0000000000000000"/>
      <sparseX i="364" alpha="-2621.3818650731837" sparseCutoff="1.0000000000000000"/>
      <sparseX i="365" alpha="1117.6674641682675" sparseCutoff="1.0000000000000000"/>
      <sparseX i="366" alpha="-10221.767223595201" sparseCutoff=".32382807207018256E-001"/>
      <sparseX i="367" alpha="-1852.2535238909481" sparseCutoff=".25766718445782710E-002"/>
      <sparseX i="368" alpha="3806.5827622053193" sparseCutoff="1.0000000000000000"/>
      <sparseX i="369" alpha="-15260.393549894683" sparseCutoff=".39597603528258085E-001"/>
      <sparseX i="370" alpha="10465.586564544556" sparseCutoff="1.0000000000000000"/>
      <sparseX i="371" alpha="-1457.5489988683848" sparseCutoff=".72535261620049751E-002"/>
      <sparseX i="372" alpha="1298.8278040296057" sparseCutoff="1.0000000000000000"/>
      <sparseX i="373" alpha="-3056.8220642327178" sparseCutoff=".92727061434115043"/>
      <sparseX i="374" alpha="-6350.4042037950567" sparseCutoff=".80749076078059534E-001"/>
      <sparseX i="375" alpha="5365.0733098802639" sparseCutoff="1.0000000000000000"/>
      <sparseX i="376" alpha="-16362.870908658217" sparseCutoff=".24922837258977504"/>
      <sparseX i="377" alpha="2117.5385779092180" sparseCutoff=".98466816083746866"/>
      <sparseX i="378" alpha="-3521.2040490639088" sparseCutoff="1.0000000000000000"/>
      <sparseX i="379" alpha="19.118092982845369" sparseCutoff=".28987703532123987E-003"/>
      <sparseX i="380" alpha="-4.3200069944154631" sparseCutoff=".28987703532123987E-003"/>
      <sparseX i="381" alpha="-1727.2680553677460" sparseCutoff=".68330489248944248E-001"/>
      <sparseX i="382" alpha="4141.8545380794794" sparseCutoff=".10923922875120118E-002"/>
      <sparseX i="383" alpha="-8095.4226175988751" sparseCutoff=".15077841673068859E-001"/>
      <sparseX i="384" alpha="-.55948776510938984E-001" sparseCutoff=".87372675328024808E-007"/>
      <sparseX i="385" alpha="6398.3398841177423" sparseCutoff="1.0000000000000000"/>
      <sparseX i="386" alpha="-1463.7028940620446" sparseCutoff=".69221947449835375"/>
      <sparseX i="387" alpha="424.20800780647556" sparseCutoff="1.0000000000000000"/>
      <sparseX i="388" alpha="20.442325721524071" sparseCutoff="1.0000000000000000"/>
      <sparseX i="389" alpha="-13301.164941202014" sparseCutoff=".87486785657520461"/>
      <sparseX i="390" alpha="3754.0990516864831" sparseCutoff="1.0000000000000000"/>
      <sparseX i="391" alpha="-1766.5472684962324" sparseCutoff="1.0000000000000000"/>
      <sparseX i="392" alpha="9516.0063761399779" sparseCutoff=".94304822956156165"/>
      <sparseX i="393" alpha="-783.31344300816954" sparseCutoff="1.0000000000000000"/>
      <sparseX i="394" alpha="-925.20980555866186" sparseCutoff=".84724624769586354"/>
      <sparseX i="395" alpha="4861.6329423932857" sparseCutoff=".45864902392028228E-002"/>
      <sparseX i="396" alpha="-195.51394197032511" sparseCutoff=".15593939124429734"/>
      <sparseX i="397" alpha="1483.3173911170800" sparseCutoff=".34470806786681274"/>
      <sparseX i="398" alpha="3843.0767666847710" sparseCutoff=".40405204457580779E-001"/>
      <sparseX i="399" alpha="-5754.2360052712565" sparseCutoff="1.0000000000000000"/>
      <sparseX i="400" alpha="9086.8987102847477" sparseCutoff="1.0000000000000000"/>
      <sparseX i="401" alpha="2738.7787444265978" sparseCutoff=".95316340701946189"/>
      <sparseX i="402" alpha="4207.0584006032032" sparseCutoff="1.0000000000000000"/>
      <sparseX i="403" alpha="9285.6238614290196" sparseCutoff=".99747242081640719"/>
      <sparseX i="404" alpha="546.39572200831731" sparseCutoff="1.0000000000000000"/>
      <sparseX i="405" alpha="1706.3022796160665" sparseCutoff="1.0000000000000000"/>
      <sparseX i="406" alpha="1140.0995294041454" sparseCutoff=".64670487272040812E-002"/>
      <sparseX i="407" alpha="-305.65904012358163" sparseCutoff="1.0000000000000000"/>
      <sparseX i="408" alpha="3507.1221172546425" sparseCutoff=".19863619101231161"/>
      <sparseX i="409" alpha="3026.0806271621595" sparseCutoff="1.0000000000000000"/>
      <sparseX i="410" alpha="-9118.2439960815937" sparseCutoff=".91354445740061896"/>
      <sparseX i="411" alpha="-1.5199328553791558" sparseCutoff=".54071962977845737E-005"/>
      <sparseX i="412" alpha="-1.6437053482660260" sparseCutoff=".43161305743552967E-005"/>
      <sparseX i="413" alpha="-5523.5714306677128" sparseCutoff="1.0000000000000000"/>
      <sparseX i="414" alpha="-12335.133074526419" sparseCutoff="1.0000000000000000"/>
      <sparseX i="415" alpha="-376.37938128258622" sparseCutoff="1.0000000000000000"/>
      <sparseX i="416" alpha="8241.6334871842118" sparseCutoff=".81269780170077965"/>
      <sparseX i="417" alpha="-490.74019740146014" sparseCutoff=".41182229608080732E-002"/>
      <sparseX i="418" alpha="1479.5578765341766" sparseCutoff=".41511713848552678E-002"/>
      <sparseX i="419" alpha="-1954.9647312107627" sparseCutoff=".44782450484314784E-001"/>
      <sparseX i="420" alpha="2088.8410145985581" sparseCutoff=".15979918271536997"/>
      <sparseX i="421" alpha="5496.5863656421161" sparseCutoff="1.0000000000000000"/>
      <sparseX i="422" alpha="-3046.2211861097685" sparseCutoff=".94094436732540987"/>
      <sparseX i="423" alpha="8541.1334282539101" sparseCutoff=".76689848552189366"/>
      <sparseX i="424" alpha="-456.94463475301978" sparseCutoff=".98926141434618953"/>
      <sparseX i="425" alpha="2687.3344964186285" sparseCutoff="1.0000000000000000"/>
      <sparseX i="426" alpha="3939.4079357253090" sparseCutoff="1.0000000000000000"/>
      <sparseX i="427" alpha="1533.5123686870036" sparseCutoff=".95806203296399395"/>
      <sparseX i="428" alpha="-592.79882383459403" sparseCutoff=".43974945271599980E-001"/>
      <sparseX i="429" alpha="1180.6430628968449" sparseCutoff=".52079167347901618E-002"/>
      <sparseX i="430" alpha="-.58837895477458679" sparseCutoff=".72881121290492207E-006"/>
      <sparseX i="431" alpha="6791.2982951593294" sparseCutoff="1.0000000000000000"/>
      <sparseX i="432" alpha="3171.8627215231527" sparseCutoff=".94471202279305666"/>
      <sparseX i="433" alpha="-5698.2516216913509" sparseCutoff="1.0000000000000000"/>
      <sparseX i="434" alpha="1065.2587343842167" sparseCutoff="1.0000000000000000"/>
      <sparseX i="435" alpha="-1360.1233902377292" sparseCutoff=".25048716111807168"/>
      <sparseX i="436" alpha="-24.603072944746351" sparseCutoff=".11631901240725645"/>
      <sparseX i="437" alpha="-409.49484638658134" sparseCutoff=".96347181630024481"/>
      <sparseX i="438" alpha="1025.7315098837855" sparseCutoff="1.0000000000000000"/>
      <sparseX i="439" alpha="-1000.8421479771988" sparseCutoff="1.0000000000000000"/>
      <sparseX i="440" alpha="1427.9684040558234" sparseCutoff=".63395970528259404E-002"/>
      <sparseX i="441" alpha="-2287.3017649728631" sparseCutoff=".45079204935252859"/>
      <sparseX i="442" alpha="4024.4206155942024" sparseCutoff="1.0000000000000000"/>
      <sparseX i="443" alpha="-5397.6382532003881" sparseCutoff="1.0000000000000000"/>
      <sparseX i="444" alpha="8682.9885357872990" sparseCutoff="1.0000000000000000"/>
      <sparseX i="445" alpha="-6680.8429401390867" sparseCutoff=".92800206504062699"/>
      <sparseX i="446" alpha="3747.9553944516674" sparseCutoff=".26658272318940190E-001"/>
      <sparseX i="447" alpha="2056.7987078638398" sparseCutoff="1.0000000000000000"/>
      <sparseX i="448" alpha="-2352.9512026697171" sparseCutoff="1.0000000000000000"/>
      <sparseX i="449" alpha="-1538.5025951766766" sparseCutoff=".95518649990409599E-001"/>
      <sparseX i="450" alpha="-1420.1376625148891" sparseCutoff=".15202238214672209"/>
      <sparseX i="451" alpha="1574.8531651292305" sparseCutoff=".96590907510374635"/>
      <sparseX i="452" alpha="-2711.6779648924294" sparseCutoff="1.0000000000000000"/>
      <sparseX i="453" alpha="-2283.2678886283315" sparseCutoff="1.0000000000000000"/>
      <sparseX i="454" alpha="3117.8036364192699" sparseCutoff=".41146131743950431E-002"/>
      <sparseX i="455" alpha="2493.6070622673169" sparseCutoff="1.0000000000000000"/>
      <sparseX i="456" alpha="4177.3519733511521" sparseCutoff=".99089707275816130"/>
      <sparseX i="457" alpha="2906.5586208790628" sparseCutoff="1.0000000000000000"/>
      <sparseX i="458" alpha="136.27978286202475" sparseCutoff=".17920439438760760E-001"/>
      <sparseX i="459" alpha="5575.5394448081806" sparseCutoff=".94848421816424722E-002"/>
      <sparseX i="460" alpha="3453.9891227056391" sparseCutoff="1.0000000000000000"/>
      <sparseX i="461" alpha="-1797.9207153388152" sparseCutoff=".94343047185013207"/>
      <sparseX i="462" alpha="46.088446543845897" sparseCutoff=".34283405895962904E-003"/>
      <sparseX i="463" alpha="4346.1282020151612" sparseCutoff=".16678671706703585"/>
      <sparseX i="464" alpha="14521.265458215006" sparseCutoff=".31614774466438567E-002"/>
      <sparseX i="465" alpha="1740.8297832155220" sparseCutoff=".99075309388686694"/>
      <sparseX i="466" alpha="-3760.2118166335458" sparseCutoff=".19351429208009768"/>
      <sparseX i="467" alpha="5027.5657786752408" sparseCutoff=".88023284863684048"/>
      <sparseX i="468" alpha="-303.76755595596256" sparseCutoff=".12370205792834172E-001"/>
      <sparseX i="469" alpha="-7903.2164148403363" sparseCutoff=".93511305607224493"/>
      <sparseX i="470" alpha="7958.6726585551451" sparseCutoff="1.0000000000000000"/>
      <sparseX i="471" alpha="-56.826544226582278" sparseCutoff="1.0000000000000000"/>
      <sparseX i="472" alpha="-17199.171234513087" sparseCutoff="1.0000000000000000"/>
      <sparseX i="473" alpha="-3765.1853333461081" sparseCutoff="1.0000000000000000"/>
      <sparseX i="474" alpha="2220.5652379001767" sparseCutoff=".97216192525039602"/>
      <sparseX i="475" alpha="-5685.9844246236962" sparseCutoff=".98532313325497789"/>
      <sparseX i="476" alpha="4222.9558079736462" sparseCutoff=".96323935100621827"/>
      <sparseX i="477" alpha="1736.6890564624048" sparseCutoff="1.0000000000000000"/>
      <sparseX i="478" alpha="7.8908613393220977" sparseCutoff=".44562486116001432E-005"/>
      <sparseX i="479" alpha="3436.6702964581605" sparseCutoff="1.0000000000000000"/>
      <sparseX i="480" alpha="2305.4866837655782" sparseCutoff=".99280331447879722"/>
      <sparseX i="481" alpha="-1183.3280581759636" sparseCutoff=".44315572010764420E-002"/>
      <sparseX i="482" alpha="1860.0052760443793" sparseCutoff=".70815689771072665E-002"/>
      <sparseX i="483" alpha="-3579.2784221639508" sparseCutoff=".56069479111654719E-001"/>
      <sparseX i="484" alpha="-3238.5270400342747" sparseCutoff="1.0000000000000000"/>
      <sparseX i="485" alpha="5100.4775413979023" sparseCutoff=".96772476508178817"/>
      <sparseX i="486" alpha="-4446.6995714309669" sparseCutoff=".99658557780671853"/>
      <sparseX i="487" alpha="1648.9375227501739" sparseCutoff="1.0000000000000000"/>
      <sparseX i="488" alpha="-2950.8781986488398" sparseCutoff="1.0000000000000000"/>
      <sparseX i="489" alpha="-194.08086746494999" sparseCutoff="1.0000000000000000"/>
      <sparseX i="490" alpha="1427.2455862430836" sparseCutoff=".95677617423426642"/>
      <sparseX i="491" alpha="18722.690711511877" sparseCutoff=".83614361113528157E-002"/>
      <sparseX i="492" alpha="-675.07565411866642" sparseCutoff="1.0000000000000000"/>
      <sparseX i="493" alpha="3.5741953466006660" sparseCutoff=".44564616341613572E-005"/>
      <sparseX i="494" alpha="1278.0719433091419" sparseCutoff="1.0000000000000000"/>
      <sparseX i="495" alpha="375.44028488402239" sparseCutoff=".32289625428344459E-002"/>
      <sparseX i="496" alpha="3347.2298150059610" sparseCutoff=".32289625428344459E-002"/>
      <sparseX i="497" alpha="229.57674304896102" sparseCutoff=".22090398001621825E-002"/>
      <sparseX i="498" alpha="3557.8284185876619" sparseCutoff=".67739848716014073E-001"/>
      <sparseX i="499" alpha="2204.2006903978800" sparseCutoff=".53366308274573226E-001"/>
      <sparseX i="500" alpha="950.04310322049798" sparseCutoff="1.0000000000000000"/>
      <sparseX i="501" alpha="3591.6263592723935" sparseCutoff=".92329970734364974"/>
      <sparseX i="502" alpha="487.06676515685433" sparseCutoff=".99631155113185388"/>
      <sparseX i="503" alpha="1403.9798813538866" sparseCutoff=".31570676861367164E-002"/>
      <sparseX i="504" alpha="-7641.0508861142553" sparseCutoff=".36656888220157335E-002"/>
      <sparseX i="505" alpha="855.50232409160503" sparseCutoff=".55463856759008223E-003"/>
      <sparseX i="506" alpha="3061.9680523247889" sparseCutoff=".62133834660478082"/>
      <sparseX i="507" alpha="-3827.9155459142712" sparseCutoff=".85644851591303406"/>
      <sparseX i="508" alpha="-4897.9214231428732" sparseCutoff=".36155225636422345"/>
      <sparseX i="509" alpha="-473.39466635025178" sparseCutoff=".43663119046871701E-003"/>
      <sparseX i="510" alpha="1212.1304872638584" sparseCutoff=".76804583223484379E-001"/>
      <sparseX i="511" alpha="5690.9294100670650" sparseCutoff="1.0000000000000000"/>
      <sparseX i="512" alpha="8495.0186908598589" sparseCutoff=".13201542641080477E-001"/>
      <sparseX i="513" alpha="-555.97287310810191" sparseCutoff="1.0000000000000000"/>
      <sparseX i="514" alpha="-330.76111700590985" sparseCutoff=".99506311891527277"/>
      <sparseX i="515" alpha="-181.94743282747547" sparseCutoff=".52135864707123503E-002"/>
      <sparseX i="516" alpha="-2259.0444230765597" sparseCutoff=".95982597809493653"/>
      <sparseX i="517" alpha="-6244.5718751709037" sparseCutoff=".16941619467178815E-001"/>
      <sparseX i="518" alpha="721.34514210465454" sparseCutoff=".46656903861597709E-002"/>
      <sparseX i="519" alpha="-5223.4022716056352" sparseCutoff="1.0000000000000000"/>
      <sparseX i="520" alpha="626.08131219953793" sparseCutoff="1.0000000000000000"/>
      <sparseX i="521" alpha="-2654.2564546624217" sparseCutoff="1.0000000000000000"/>
      <sparseX i="522" alpha="4263.3315824192414" sparseCutoff=".98714254483736985"/>
      <sparseX i="523" alpha="-189.39471833291165" sparseCutoff="1.0000000000000000"/>
      <sparseX i="524" alpha="-4.3194601759498479" sparseCutoff=".94943763149779592E-005"/>
      <sparseX i="525" alpha="1708.7792405316106" sparseCutoff=".18743602806436388E-002"/>
      <sparseX i="526" alpha="2852.7573785468967" sparseCutoff=".43930438991031001"/>
      <sparseX i="527" alpha="970.27197839948076" sparseCutoff=".96200659412878320"/>
      <sparseX i="528" alpha="867.77517229368868" sparseCutoff=".21102417765274939E-001"/>
      <sparseX i="529" alpha="999.87483719532258" sparseCutoff="1.0000000000000000"/>
      <sparseX i="530" alpha="-4578.9890873869654" sparseCutoff=".88470880487225345E-001"/>
      <sparseX i="531" alpha="6647.6480434923769" sparseCutoff=".93336721545929213"/>
      <sparseX i="532" alpha="5370.6576610163875" sparseCutoff=".24845844296964015E-001"/>
      <sparseX i="533" alpha="-4212.2454342550172" sparseCutoff="1.0000000000000000"/>
      <sparseX i="534" alpha="3.8850853561761531" sparseCutoff="1.0000000000000000"/>
      <sparseX i="535" alpha="-2046.9010432677478" sparseCutoff=".68665307810414533"/>
      <sparseX i="536" alpha="-102.60490630779590" sparseCutoff=".19288127771419861E-001"/>
      <sparseX i="537" alpha="3565.3312830378313" sparseCutoff="1.0000000000000000"/>
      <sparseX i="538" alpha="1091.8381189166823" sparseCutoff="1.0000000000000000"/>
      <sparseX i="539" alpha="1140.7764333554678" sparseCutoff=".81372205469088010"/>
      <sparseX i="540" alpha="-2694.7516239778993" sparseCutoff="1.0000000000000000"/>
      <sparseX i="541" alpha="-1324.9057784291128" sparseCutoff="1.0000000000000000"/>
      <sparseX i="542" alpha="-15320.359918106280" sparseCutoff="1.0000000000000000"/>
      <sparseX i="543" alpha="-28.213537046128629" sparseCutoff=".31533772821334960E-004"/>
      <sparseX i="544" alpha="7087.9069888043714" sparseCutoff="1.0000000000000000"/>
      <sparseX i="545" alpha="-1702.7608539338473" sparseCutoff=".21542954190860852"/>
      <sparseX i="546" alpha="2834.7032269268316" sparseCutoff=".77051243915521428E-001"/>
      <sparseX i="547" alpha="7306.5428855339669" sparseCutoff="1.0000000000000000"/>
      <sparseX i="548" alpha="-5766.9237609642787" sparseCutoff="1.0000000000000000"/>
      <sparseX i="549" alpha="1595.7245679557795" sparseCutoff="1.0000000000000000"/>
      <sparseX i="550" alpha="2667.1360973588767" sparseCutoff=".99523899716571207"/>
      <sparseX i="551" alpha="-6200.1673427076576" sparseCutoff="1.0000000000000000"/>
      <sparseX i="552" alpha="1937.0191186168015" sparseCutoff=".28640635512644508E-002"/>
      <sparseX i="553" alpha="3359.9405279158750" sparseCutoff=".78622517781991585E-002"/>
      <sparseX i="554" alpha="-.24973981819828672" sparseCutoff=".11614245668001797E-005"/>
      <sparseX i="555" alpha="-7147.4093311449296" sparseCutoff="1.0000000000000000"/>
      <sparseX i="556" alpha="-544.86639934375501" sparseCutoff="1.0000000000000000"/>
      <sparseX i="557" alpha="2382.2673370136054" sparseCutoff="1.0000000000000000"/>
      <sparseX i="558" alpha="-580.32237066762775" sparseCutoff="1.0000000000000000"/>
      <sparseX i="559" alpha="4271.0755178384788" sparseCutoff=".93860484616936679"/>
      <sparseX i="560" alpha="-4301.4173776220114" sparseCutoff="1.0000000000000000"/>
      <sparseX i="561" alpha="483.44304967148463" sparseCutoff="1.0000000000000000"/>
      <sparseX i="562" alpha="-5976.4481270885881" sparseCutoff=".87041900420543439"/>
      <sparseX i="563" alpha="-9597.1788771193624" sparseCutoff=".31497971834460009"/>
      <sparseX i="564" alpha="2918.7616535902221" sparseCutoff=".90875531306238089"/>
      <sparseX i="565" alpha="2050.6562382918169" sparseCutoff=".94105394263438558"/>
      <sparseX i="566" alpha="-3281.7139014522400" sparseCutoff="1.0000000000000000"/>
      <sparseX i="567" alpha="-5081.3902229803662" sparseCutoff=".96359526422995045"/>
      <sparseX i="568" alpha="8922.5053040629973" sparseCutoff="1.0000000000000000"/>
      <sparseX i="569" alpha="-2363.6640608952143" sparseCutoff="1.0000000000000000"/>
      <sparseX i="570" alpha="628.78498794248674" sparseCutoff="1.0000000000000000"/>
      <sparseX i="571" alpha="3802.2019123332875" sparseCutoff=".95426234082063588"/>
      <sparseX i="572" alpha="1690.6106642538009" sparseCutoff="1.0000000000000000"/>
      <sparseX i="573" alpha="-9017.0133708656995" sparseCutoff="1.0000000000000000"/>
      <sparseX i="574" alpha="-3445.6959308264136" sparseCutoff="1.0000000000000000"/>
      <sparseX i="575" alpha="-12814.063052850235" sparseCutoff=".14450233628140186E-001"/>
      <sparseX i="576" alpha="-2128.6329213660065" sparseCutoff=".75878710970518259"/>
      <sparseX i="577" alpha="643.90281199320339" sparseCutoff="1.0000000000000000"/>
      <sparseX i="578" alpha="3135.6829167005417" sparseCutoff="1.0000000000000000"/>
      <sparseX i="579" alpha="-316.78843606263996" sparseCutoff=".91792596847144892"/>
      <sparseX i="580" alpha="1255.1668931024381" sparseCutoff="1.0000000000000000"/>
      <sparseX i="581" alpha="-3367.6153721505534" sparseCutoff=".41905809832935015E-002"/>
      <sparseX i="582" alpha="6345.0748241196789" sparseCutoff=".98154761250239497"/>
      <sparseX i="583" alpha="2004.1005938987848" sparseCutoff=".92592956737245014"/>
      <sparseX i="584" alpha="-2633.6480671357854" sparseCutoff=".23982275731726899E-001"/>
      <sparseX i="585" alpha="9558.9070376721575" sparseCutoff=".27129216207452211"/>
      <sparseX i="586" alpha="3261.7735814048378" sparseCutoff=".76913539243643381"/>
      <sparseX i="587" alpha="-7749.9316242698969" sparseCutoff=".16670187297223438"/>
      <sparseX i="588" alpha="19155.057139762430" sparseCutoff=".37424275950611041E-001"/>
      <sparseX i="589" alpha="-16153.273824543583" sparseCutoff=".76096998554014417E-001"/>
      <sparseX i="590" alpha="-9729.8861647046488" sparseCutoff=".40096125860606402E-002"/>
      <sparseX i="591" alpha="9692.0601688085881" sparseCutoff=".26320278299510269"/>
      <sparseX i="592" alpha="11064.854963719397" sparseCutoff=".51457570038093681"/>
      <sparseX i="593" alpha="-9320.1091554152808" sparseCutoff=".56507757205737907"/>
      <sparseX i="594" alpha="-9448.5424972609835" sparseCutoff=".49257157607808533"/>
      <sparseX i="595" alpha="26177.248676935938" sparseCutoff=".72259056096440621E-001"/>
      <sparseX i="596" alpha="3495.8176699088690" sparseCutoff=".78131312697332889"/>
      <sparseX i="597" alpha="579.67273117576121" sparseCutoff=".78890405846012064E-003"/>
      <sparseX i="598" alpha="-17741.409427742357" sparseCutoff=".81982509166812600E-001"/>
      <sparseX i="599" alpha="-9268.4446134323698" sparseCutoff=".87549351521653207"/>
      <sparseX i="600" alpha="-4651.0522595252987" sparseCutoff=".32759139355396205E-001"/>
    </gpCoordinates>
    <gpCoordinates label="GAP_2026_4_17_180_12_22_36_5265" dimensions="3" signal_variance=".10000000000000001E+000" signal_mean=".00000000000000000E+000" sparsified="T" n_permutations="1" covariance_type="1" n_sparseX="600" sparseX_filename="gap_Bi-Si.xml.sparseX.GAP_2026_4_17_180_12_22_36_5265" sparseX_md5sum="6c7244d2e38a2df728a0953f28f13d00">
      <theta>  0.10000000000000000E+001  0.10000000000000000E+001  0.10000000000000000E+001 </theta>
      <descriptor> angle_3b cutoff=4.5 cutoff_transition_width=0.6 n_sparse=600 covariance_type=ard_se delta=0.1 theta_uniform=1.0 sparse_method=uniform print_sparse_index=sparse_indices_3b.out Z=83 Z1=14 Z2=83 add_species=F</descriptor>
      <permutation i="1">1 2 3  </permutation>
      <sparseX i="1" alpha="-121.80790515556453" sparseCutoff=".83304755141400122E-004"/>
      <sparseX i="2" alpha="-1460.8886938849168" sparseCutoff="1.0000000000000000"/>
      <sparseX i="3" alpha="-670.62853032072292" sparseCutoff=".99535279676315669"/>
      <sparseX i="4" alpha="-4758.2034468266820" sparseCutoff="1.0000000000000000"/>
      <sparseX i="5" alpha="-2502.0388121064843" sparseCutoff=".27245582142501612E-002"/>
      <sparseX i="6" alpha="3498.9062124750562" sparseCutoff="1.0000000000000000"/>
      <sparseX i="7" alpha="-2359.1013970088152" sparseCutoff="1.0000000000000000"/>
      <sparseX i="8" alpha="4395.1254926811807" sparseCutoff="1.0000000000000000"/>
      <sparseX i="9" alpha="-1205.6326411776959" sparseCutoff="1.0000000000000000"/>
      <sparseX i="10" alpha="6886.4657294060262" sparseCutoff=".98842965900453150"/>
      <sparseX i="11" alpha="5782.7216068284461" sparseCutoff="1.0000000000000000"/>
      <sparseX i="12" alpha="3066.6557999801903" sparseCutoff=".24418899439350605E-001"/>
      <sparseX i="13" alpha="2930.5834137949446" sparseCutoff="1.0000000000000000"/>
      <sparseX i="14" alpha="-3575.3490309870149" sparseCutoff=".86137961045228817"/>
      <sparseX i="15" alpha="-3.9968213693540786" sparseCutoff="1.0000000000000000"/>
      <sparseX i="16" alpha="-14340.467370327620" sparseCutoff="1.0000000000000000"/>
      <sparseX i="17" alpha="4074.8629719126493" sparseCutoff="1.0000000000000000"/>
      <sparseX i="18" alpha="-3485.6998735477791" sparseCutoff="1.0000000000000000"/>
      <sparseX i="19" alpha="11328.958649843962" sparseCutoff="1.0000000000000000"/>
      <sparseX i="20" alpha="-6319.6467746658591" sparseCutoff="1.0000000000000000"/>
      <sparseX i="21" alpha="-4036.5780440013782" sparseCutoff="1.0000000000000000"/>
      <sparseX i="22" alpha="4431.7908431611177" sparseCutoff="1.0000000000000000"/>
      <sparseX i="23" alpha="8451.1450951166735" sparseCutoff=".84389618112972564"/>
      <sparseX i="24" alpha="2680.9578443782348" sparseCutoff="1.0000000000000000"/>
      <sparseX i="25" alpha="-3083.2713791066858" sparseCutoff=".28882028244946545"/>
      <sparseX i="26" alpha="3756.5621056457362" sparseCutoff=".49481818087857399E-001"/>
      <sparseX i="27" alpha="4192.5779590336351" sparseCutoff=".49068574834719986"/>
      <sparseX i="28" alpha="-215.35450898438094" sparseCutoff="1.0000000000000000"/>
      <sparseX i="29" alpha="-3922.3686241539317" sparseCutoff="1.0000000000000000"/>
      <sparseX i="30" alpha="-1804.9152109619522" sparseCutoff="1.0000000000000000"/>
      <sparseX i="31" alpha="20.940453497097010" sparseCutoff=".17919404132088411E-003"/>
      <sparseX i="32" alpha="-10262.292218352715" sparseCutoff=".56874271928100864E-001"/>
      <sparseX i="33" alpha="-6550.8154483146354" sparseCutoff=".62633970668865280E-001"/>
      <sparseX i="34" alpha="-476.74959642133314" sparseCutoff=".35306677157809772E-003"/>
      <sparseX i="35" alpha="8964.2672697075013" sparseCutoff=".62633970668865280E-001"/>
      <sparseX i="36" alpha="587.55700738174596" sparseCutoff=".62633970668865280E-001"/>
      <sparseX i="37" alpha="-7243.3458841796100" sparseCutoff=".24102318037004526E-002"/>
      <sparseX i="38" alpha="-1423.5585378741775" sparseCutoff=".62633970668865280E-001"/>
      <sparseX i="39" alpha="21039.860794791672" sparseCutoff=".62092977620299528E-001"/>
      <sparseX i="40" alpha="-21111.426727699076" sparseCutoff=".62633970668865280E-001"/>
      <sparseX i="41" alpha="-3723.4271201316724" sparseCutoff=".60172981910564000E-001"/>
      <sparseX i="42" alpha="-77.865533030178810" sparseCutoff=".45873051317979474E-003"/>
      <sparseX i="43" alpha="439.88332960986315" sparseCutoff=".45873051317979474E-003"/>
      <sparseX i="44" alpha="-5247.4815480438083" sparseCutoff=".62633970668865280E-001"/>
      <sparseX i="45" alpha="-3001.2003924596020" sparseCutoff=".62633970668865280E-001"/>
      <sparseX i="46" alpha="-108.54497287195591" sparseCutoff=".45873051317979474E-003"/>
      <sparseX i="47" alpha="2.8311620287573778" sparseCutoff=".13124151902882982E-005"/>
      <sparseX i="48" alpha="-201.35038807870896" sparseCutoff=".45873051317979474E-003"/>
      <sparseX i="49" alpha="-21.295245108149668" sparseCutoff=".17652511255260030E-004"/>
      <sparseX i="50" alpha="303.48935499539760" sparseCutoff=".45873051317979474E-003"/>
      <sparseX i="51" alpha="-1117.1722192501115" sparseCutoff=".45873051317979474E-003"/>
      <sparseX i="52" alpha="-182.32964691911630" sparseCutoff=".45873051317979474E-003"/>
      <sparseX i="53" alpha="-9.1415278660983237" sparseCutoff=".45873051317979474E-003"/>
      <sparseX i="54" alpha="9437.7428724757356" sparseCutoff=".62633970668865280E-001"/>
      <sparseX i="55" alpha="-1104.5017290847134" sparseCutoff=".32411037613030093E-002"/>
      <sparseX i="56" alpha="-15.962536423823799" sparseCutoff=".49966340988897043E-005"/>
      <sparseX i="57" alpha="-216.35615909601464" sparseCutoff=".31672435925685289E-003"/>
      <sparseX i="58" alpha="-1.8961950889284542" sparseCutoff=".45873051317979474E-003"/>
      <sparseX i="59" alpha="-1076.1498792171806" sparseCutoff=".45873051317979474E-003"/>
      <sparseX i="60" alpha="-436.90095279627633" sparseCutoff=".45873051317979474E-003"/>
      <sparseX i="61" alpha="5556.6323515779932" sparseCutoff=".62633970668865280E-001"/>
      <sparseX i="62" alpha="-787.07728335956472" sparseCutoff=".31667219458487842E-003"/>
      <sparseX i="63" alpha="-5334.6047117756389" sparseCutoff=".62633970668865280E-001"/>
      <sparseX i="64" alpha="9478.3619172641884" sparseCutoff=".62633970668865280E-001"/>
      <sparseX i="65" alpha="-33.015059002807760" sparseCutoff=".15504576220996291E-004"/>
      <sparseX i="66" alpha="-572.95814503448753" sparseCutoff=".45873051317979474E-003"/>
      <sparseX i="67" alpha="-24713.053399719040" sparseCutoff=".62633970668865280E-001"/>
      <sparseX i="68" alpha="60.655706929357635" sparseCutoff=".45873051317979474E-003"/>
      <sparseX i="69" alpha="-6109.7030074092154" sparseCutoff=".62633970668865280E-001"/>
      <sparseX i="70" alpha="107.44318185047129" sparseCutoff=".45873051317979474E-003"/>
      <sparseX i="71" alpha="-219.72200923159409" sparseCutoff=".62633970668865280E-001"/>
      <sparseX i="72" alpha="-73.643639601484907" sparseCutoff=".45873051317979474E-003"/>
      <sparseX i="73" alpha="-331.11496788662953" sparseCutoff=".62633970668865280E-001"/>
      <sparseX i="74" alpha="-403.93727381300721" sparseCutoff=".26652712950190702E-002"/>
      <sparseX i="75" alpha="6526.4700014971895" sparseCutoff=".20579075908591002"/>
      <sparseX i="76" alpha="2955.2734169707887" sparseCutoff=".21128896643259998"/>
      <sparseX i="77" alpha="1952.0177095100655" sparseCutoff=".21128896643259998"/>
      <sparseX i="78" alpha="-2257.8602406781442" sparseCutoff=".21128896643259998"/>
      <sparseX i="79" alpha="-16589.440988271126" sparseCutoff=".21128896643259998"/>
      <sparseX i="80" alpha="2197.2693345572279" sparseCutoff=".21128896643259998"/>
      <sparseX i="81" alpha="-7761.5951686304652" sparseCutoff=".21128896643259998"/>
      <sparseX i="82" alpha="2289.7135442975277" sparseCutoff=".15629082359052214E-001"/>
      <sparseX i="83" alpha="-913.84482847274194" sparseCutoff=".21128896643259998"/>
      <sparseX i="84" alpha="8399.0799923208488" sparseCutoff=".21128896643259998"/>
      <sparseX i="85" alpha="-1550.4343924088521" sparseCutoff=".21128896643259998"/>
      <sparseX i="86" alpha="184.85802876210883" sparseCutoff=".94885789470286697"/>
      <sparseX i="87" alpha="1595.3608944785260" sparseCutoff=".97809103236719253"/>
      <sparseX i="88" alpha="9342.3278275541616" sparseCutoff="1.0000000000000000"/>
      <sparseX i="89" alpha="-2038.0747362269124" sparseCutoff=".89320430987832711"/>
      <sparseX i="90" alpha="13356.973514286838" sparseCutoff="1.0000000000000000"/>
      <sparseX i="91" alpha="17476.448500759616" sparseCutoff="1.0000000000000000"/>
      <sparseX i="92" alpha="-2054.9955409186491" sparseCutoff="1.0000000000000000"/>
      <sparseX i="93" alpha="478.39569098935618" sparseCutoff="1.0000000000000000"/>
      <sparseX i="94" alpha="-2142.2566068662331" sparseCutoff="1.0000000000000000"/>
      <sparseX i="95" alpha="804.64010464542378" sparseCutoff="1.0000000000000000"/>
      <sparseX i="96" alpha="928.85266542545480" sparseCutoff="1.0000000000000000"/>
      <sparseX i="97" alpha="-4211.6027497043251" sparseCutoff="1.0000000000000000"/>
      <sparseX i="98" alpha="-234.51368156831091" sparseCutoff="1.0000000000000000"/>
      <sparseX i="99" alpha="4482.6589092783897" sparseCutoff=".59016283533297986"/>
      <sparseX i="100" alpha="4136.2083043152115" sparseCutoff=".91281383279553796"/>
      <sparseX i="101" alpha="-1137.9005277615265" sparseCutoff=".67264769140280012E-002"/>
      <sparseX i="102" alpha="-4166.2326373346459" sparseCutoff=".39777367231220495"/>
      <sparseX i="103" alpha="-106.30500604628079" sparseCutoff=".39777367231220495"/>
      <sparseX i="104" alpha="-7104.3601675767513" sparseCutoff=".39777367231220495"/>
      <sparseX i="105" alpha="5344.2490166709886" sparseCutoff=".39777367231220495"/>
      <sparseX i="106" alpha="5172.3306640400824" sparseCutoff=".39777367231220495"/>
      <sparseX i="107" alpha="-5794.2498485672668" sparseCutoff=".67264769140280012E-002"/>
      <sparseX i="108" alpha="-5225.8934945846449" sparseCutoff=".67264769140280012E-002"/>
      <sparseX i="109" alpha="-12573.188473001226" sparseCutoff=".67264769140280012E-002"/>
      <sparseX i="110" alpha="104.47036208496530" sparseCutoff=".67264769140280012E-002"/>
      <sparseX i="111" alpha="-1485.6953937100277" sparseCutoff=".67264769140280012E-002"/>
      <sparseX i="112" alpha="-9661.7344546601944" sparseCutoff=".39777367231220495"/>
      <sparseX i="113" alpha="-4438.3990171162313" sparseCutoff=".39777367231220495"/>
      <sparseX i="114" alpha="5163.5133061782517" sparseCutoff=".39777367231220495"/>
      <sparseX i="115" alpha="-2967.8054057293079" sparseCutoff=".67264769140280012E-002"/>
      <sparseX i="116" alpha="1805.8911028175844" sparseCutoff=".39777367231220495"/>
      <sparseX i="117" alpha="-5094.8295328368185" sparseCutoff=".67264769140280012E-002"/>
      <sparseX i="118" alpha="-6388.4880041454226" sparseCutoff=".39777367231220495"/>
      <sparseX i="119" alpha="-12350.489372559654" sparseCutoff=".67264769140280012E-002"/>
      <sparseX i="120" alpha="-5145.8132865467351" sparseCutoff=".67264769140280012E-002"/>
      <sparseX i="121" alpha="356.40658831239898" sparseCutoff=".67221503528904361E-002"/>
      <sparseX i="122" alpha="2756.9529114573465" sparseCutoff=".39777367231220495"/>
      <sparseX i="123" alpha="-2522.1431416628234" sparseCutoff=".67264769140280012E-002"/>
      <sparseX i="124" alpha="-14702.231385446046" sparseCutoff=".67264769140280012E-002"/>
      <sparseX i="125" alpha="-1811.0885259406280" sparseCutoff=".67264769140280012E-002"/>
      <sparseX i="126" alpha="4536.1394875423221" sparseCutoff=".67264769140280012E-002"/>
      <sparseX i="127" alpha="-4756.2095001703974" sparseCutoff=".99969123187644737"/>
      <sparseX i="128" alpha="-5890.1820703156409" sparseCutoff=".99951958732903112"/>
      <sparseX i="129" alpha="6476.7519929748541" sparseCutoff="1.0000000000000000"/>
      <sparseX i="130" alpha="3254.7790207440235" sparseCutoff="1.0000000000000000"/>
      <sparseX i="131" alpha="-269.17869311263013" sparseCutoff=".99997557018903871"/>
      <sparseX i="132" alpha="5720.2100445010601" sparseCutoff="1.0000000000000000"/>
      <sparseX i="133" alpha="-4297.1136957237677" sparseCutoff="1.0000000000000000"/>
      <sparseX i="134" alpha="6051.3983607297087" sparseCutoff="1.0000000000000000"/>
      <sparseX i="135" alpha="3200.5261178941205" sparseCutoff="1.0000000000000000"/>
      <sparseX i="136" alpha="-1410.9649928428662" sparseCutoff="1.0000000000000000"/>
      <sparseX i="137" alpha="1406.3375834046115" sparseCutoff="1.0000000000000000"/>
      <sparseX i="138" alpha="4085.6155528758923" sparseCutoff="1.0000000000000000"/>
      <sparseX i="139" alpha="153.21116348871746" sparseCutoff=".33685070430436592"/>
      <sparseX i="140" alpha="-2504.3808632011974" sparseCutoff=".62979549278272773"/>
      <sparseX i="141" alpha="3477.0551170488902" sparseCutoff=".41274898072253918"/>
      <sparseX i="142" alpha="-220.14711071255439" sparseCutoff="1.0000000000000000"/>
      <sparseX i="143" alpha="-233.60473592190695" sparseCutoff=".29182419331553744E-002"/>
      <sparseX i="144" alpha="-2564.2404999102405" sparseCutoff=".97062532796643064"/>
      <sparseX i="145" alpha="9890.6320898348804" sparseCutoff=".97062532796643064"/>
      <sparseX i="146" alpha="-10870.353676539329" sparseCutoff=".97062532796643064"/>
      <sparseX i="147" alpha="-896.91090565980187" sparseCutoff=".97062532796643064"/>
      <sparseX i="148" alpha="10078.719773524397" sparseCutoff=".97062532796643064"/>
      <sparseX i="149" alpha="-193.75098112667732" sparseCutoff=".96694855782614841"/>
      <sparseX i="150" alpha="-1927.7872728028597" sparseCutoff=".97062532796643064"/>
      <sparseX i="151" alpha="-2002.5943036458325" sparseCutoff=".97062532796643064"/>
      <sparseX i="152" alpha="-4235.1594660675210" sparseCutoff=".97062532796643064"/>
      <sparseX i="153" alpha="1507.2707205138106" sparseCutoff=".97062532796643064"/>
      <sparseX i="154" alpha="2739.4287638126739" sparseCutoff=".97062532796643064"/>
      <sparseX i="155" alpha="8763.3708391284381" sparseCutoff=".26309292709690241"/>
      <sparseX i="156" alpha="-4352.5245826886585" sparseCutoff=".37898823605263562E-002"/>
      <sparseX i="157" alpha="2883.1808044220766" sparseCutoff=".26309292709690241"/>
      <sparseX i="158" alpha="4560.4918417011422" sparseCutoff=".26309292709690241"/>
      <sparseX i="159" alpha="-2013.8487347526741" sparseCutoff=".22488232484356574"/>
      <sparseX i="160" alpha="7172.2154333879507" sparseCutoff=".22488232484356574"/>
      <sparseX i="161" alpha="6829.2426183688567" sparseCutoff=".26309292709690241"/>
      <sparseX i="162" alpha="1748.5668606010554" sparseCutoff=".26309292709690241"/>
      <sparseX i="163" alpha="5405.5804953347524" sparseCutoff=".63055749190706001E-001"/>
      <sparseX i="164" alpha="2929.6931551288876" sparseCutoff=".63055749190706001E-001"/>
      <sparseX i="165" alpha="-8762.2673648386080" sparseCutoff=".63055749190706001E-001"/>
      <sparseX i="166" alpha="1452.7581639868904" sparseCutoff=".79060176726302722E-001"/>
      <sparseX i="167" alpha="-10589.062328929747" sparseCutoff=".63055749190706001E-001"/>
      <sparseX i="168" alpha="-17855.268265676492" sparseCutoff=".79060176726302722E-001"/>
      <sparseX i="169" alpha="5107.4178290014079" sparseCutoff=".63055749190706001E-001"/>
      <sparseX i="170" alpha="-3703.0694221195113" sparseCutoff=".79060176726302722E-001"/>
      <sparseX i="171" alpha="-5296.1181544173178" sparseCutoff=".96202057643561067"/>
      <sparseX i="172" alpha="781.93851775094242" sparseCutoff="1.0000000000000000"/>
      <sparseX i="173" alpha="411.71442204513147" sparseCutoff="1.0000000000000000"/>
      <sparseX i="174" alpha="2979.4257345408569" sparseCutoff="1.0000000000000000"/>
      <sparseX i="175" alpha="-901.46967067745982" sparseCutoff="1.0000000000000000"/>
      <sparseX i="176" alpha="145.57276987431058" sparseCutoff=".46492422551883128E-002"/>
      <sparseX i="177" alpha="-1067.0651424697403" sparseCutoff=".88944074701343734"/>
      <sparseX i="178" alpha="7477.8772541552007" sparseCutoff="1.0000000000000000"/>
      <sparseX i="179" alpha="8871.2588676065170" sparseCutoff="1.0000000000000000"/>
      <sparseX i="180" alpha="3935.7751609364668" sparseCutoff=".99624997069941745"/>
      <sparseX i="181" alpha="-3774.4535699812909" sparseCutoff="1.0000000000000000"/>
      <sparseX i="182" alpha="4752.0037337936055" sparseCutoff="1.0000000000000000"/>
      <sparseX i="183" alpha="-6509.3421258734452" sparseCutoff="1.0000000000000000"/>
      <sparseX i="184" alpha="10274.815485722118" sparseCutoff=".69439920643842612"/>
      <sparseX i="185" alpha="-1031.9477829169100" sparseCutoff="1.0000000000000000"/>
      <sparseX i="186" alpha="3864.8433120416180" sparseCutoff=".56743639614125818E-001"/>
      <sparseX i="187" alpha="10346.822456775813" sparseCutoff="1.0000000000000000"/>
      <sparseX i="188" alpha="-2407.4720453356795" sparseCutoff="1.0000000000000000"/>
      <sparseX i="189" alpha="6872.8962131915305" sparseCutoff="1.0000000000000000"/>
      <sparseX i="190" alpha="-23.353013607568613" sparseCutoff=".18076697246305340E-003"/>
      <sparseX i="191" alpha="-346.33094873420555" sparseCutoff="1.0000000000000000"/>
      <sparseX i="192" alpha="-2363.7084346980814" sparseCutoff=".43038737342723232E-002"/>
      <sparseX i="193" alpha="-9822.9075840540554" sparseCutoff=".82126073949589817"/>
      <sparseX i="194" alpha="-3733.7147000516070" sparseCutoff="1.0000000000000000"/>
      <sparseX i="195" alpha="1854.4473806504786" sparseCutoff="1.0000000000000000"/>
      <sparseX i="196" alpha="4994.5661438711222" sparseCutoff="1.0000000000000000"/>
      <sparseX i="197" alpha="-6285.3136506251512" sparseCutoff="1.0000000000000000"/>
      <sparseX i="198" alpha="6082.6130138339022" sparseCutoff="1.0000000000000000"/>
      <sparseX i="199" alpha="-850.76777148816018" sparseCutoff=".19902756914133013E-002"/>
      <sparseX i="200" alpha="5761.4310590101386" sparseCutoff=".93258547850580686E-001"/>
      <sparseX i="201" alpha="-7874.3735177389080" sparseCutoff=".79129608103468141E-002"/>
      <sparseX i="202" alpha="-14902.615438664323" sparseCutoff="1.0000000000000000"/>
      <sparseX i="203" alpha="-2476.1062025827141" sparseCutoff=".99968831256805235"/>
      <sparseX i="204" alpha="-133.20840800462835" sparseCutoff=".13989012247346444E-001"/>
      <sparseX i="205" alpha="664.54420813693298" sparseCutoff="1.0000000000000000"/>
      <sparseX i="206" alpha="-5639.4116537437048" sparseCutoff=".86432258516611016"/>
      <sparseX i="207" alpha="6864.7066147906753" sparseCutoff="1.0000000000000000"/>
      <sparseX i="208" alpha="1213.6593804479230" sparseCutoff="1.0000000000000000"/>
      <sparseX i="209" alpha="-2628.3596952606863" sparseCutoff="1.0000000000000000"/>
      <sparseX i="210" alpha="623.78598722097161" sparseCutoff=".14400321331619059E-002"/>
      <sparseX i="211" alpha="-2064.1796290209531" sparseCutoff=".76668859770052389E-001"/>
      <sparseX i="212" alpha="-1058.1311525841606" sparseCutoff=".13345510891285162E-001"/>
      <sparseX i="213" alpha="-4333.3192609288653" sparseCutoff=".49971756970187816E-002"/>
      <sparseX i="214" alpha="-1483.9857699468855" sparseCutoff=".97255140806732165"/>
      <sparseX i="215" alpha="-25.823643289837094" sparseCutoff=".97255140806732165"/>
      <sparseX i="216" alpha="-1656.3918661616649" sparseCutoff=".97255140806732165"/>
      <sparseX i="217" alpha="-267.33118861170800" sparseCutoff=".97255140806732165"/>
      <sparseX i="218" alpha="2064.9397662508645" sparseCutoff=".97255140806732165"/>
      <sparseX i="219" alpha="-3864.6241275284810" sparseCutoff=".97255140806732165"/>
      <sparseX i="220" alpha="14308.357084261523" sparseCutoff=".97255140806732165"/>
      <sparseX i="221" alpha="4855.3100908358001" sparseCutoff=".89914144954372610"/>
      <sparseX i="222" alpha="6589.8178618960328" sparseCutoff=".97255140806732165"/>
      <sparseX i="223" alpha="635.17021931368254" sparseCutoff=".19432341333073887E-001"/>
      <sparseX i="224" alpha="-3795.5791065039557" sparseCutoff=".89169376802444800E-001"/>
      <sparseX i="225" alpha="-1012.1637296346970" sparseCutoff=".88969304512472730E-001"/>
      <sparseX i="226" alpha="113.36751437495143" sparseCutoff=".40827366793354886"/>
      <sparseX i="227" alpha="2779.7915163926264" sparseCutoff=".89169376802444800E-001"/>
      <sparseX i="228" alpha="7095.6881736107807" sparseCutoff=".40827366793354886"/>
      <sparseX i="229" alpha="1171.8002530832407" sparseCutoff=".89169376802444800E-001"/>
      <sparseX i="230" alpha="5810.8827286660544" sparseCutoff=".40827366793354886"/>
      <sparseX i="231" alpha="-3755.2355101759904" sparseCutoff=".89169376802444800E-001"/>
      <sparseX i="232" alpha="1104.5184733132094" sparseCutoff=".89169376802444800E-001"/>
      <sparseX i="233" alpha="10618.470520272269" sparseCutoff=".40827366793354886"/>
      <sparseX i="234" alpha="526.25153749437288" sparseCutoff=".83444800971774528E-003"/>
      <sparseX i="235" alpha="5098.0588957958280" sparseCutoff=".56851983381348659"/>
      <sparseX i="236" alpha="-3573.7865330653440" sparseCutoff=".56851983381348659"/>
      <sparseX i="237" alpha="-361.25422537714638" sparseCutoff=".56851983381348659"/>
      <sparseX i="238" alpha="-14822.026896980651" sparseCutoff=".56851983381348659"/>
      <sparseX i="239" alpha="5585.5105089317749" sparseCutoff=".56851983381348659"/>
      <sparseX i="240" alpha="4780.7649906939450" sparseCutoff="1.0000000000000000"/>
      <sparseX i="241" alpha="-9710.8194810474924" sparseCutoff=".91613745520982914"/>
      <sparseX i="242" alpha="1635.0567889705831" sparseCutoff="1.0000000000000000"/>
      <sparseX i="243" alpha="-95.443543529198834" sparseCutoff="1.0000000000000000"/>
      <sparseX i="244" alpha="698.95114649584616" sparseCutoff="1.0000000000000000"/>
      <sparseX i="245" alpha="641.95264840792515" sparseCutoff=".13998928158480972E-001"/>
      <sparseX i="246" alpha="3225.9061454190196" sparseCutoff="1.0000000000000000"/>
      <sparseX i="247" alpha="-10793.011992674899" sparseCutoff="1.0000000000000000"/>
      <sparseX i="248" alpha="2087.3123358001676" sparseCutoff=".70127892883361576E-001"/>
      <sparseX i="249" alpha="1183.6175094797243" sparseCutoff="1.0000000000000000"/>
      <sparseX i="250" alpha="1390.5986707156012" sparseCutoff="1.0000000000000000"/>
      <sparseX i="251" alpha="-2528.9462483308080" sparseCutoff="1.0000000000000000"/>
      <sparseX i="252" alpha="8958.5305760190786" sparseCutoff="1.0000000000000000"/>
      <sparseX i="253" alpha="-905.22466610865820" sparseCutoff="1.0000000000000000"/>
      <sparseX i="254" alpha="449.64133745732045" sparseCutoff="1.0000000000000000"/>
      <sparseX i="255" alpha="1484.1843712341456" sparseCutoff="1.0000000000000000"/>
      <sparseX i="256" alpha="-4324.6605054017100" sparseCutoff="1.0000000000000000"/>
      <sparseX i="257" alpha="1370.9702043795644" sparseCutoff="1.0000000000000000"/>
      <sparseX i="258" alpha="-1549.6468453646767" sparseCutoff="1.0000000000000000"/>
      <sparseX i="259" alpha="-813.45743948159964" sparseCutoff="1.0000000000000000"/>
      <sparseX i="260" alpha="2271.6293522735045" sparseCutoff="1.0000000000000000"/>
      <sparseX i="261" alpha="1342.2356236027888" sparseCutoff=".48388637348868285"/>
      <sparseX i="262" alpha="9.0310342829636934" sparseCutoff=".64048451746743651E-005"/>
      <sparseX i="263" alpha="1600.3776513988378" sparseCutoff=".15430259623010933"/>
      <sparseX i="264" alpha="-4082.9839472734766" sparseCutoff=".15629361188109558"/>
      <sparseX i="265" alpha="-473.35070631663535" sparseCutoff=".15629361188109558"/>
      <sparseX i="266" alpha="14339.202079915134" sparseCutoff=".15629361188109558"/>
      <sparseX i="267" alpha="6345.2743101125243" sparseCutoff=".61443179599775610"/>
      <sparseX i="268" alpha="5023.1614864546227" sparseCutoff=".61443179599775610"/>
      <sparseX i="269" alpha="4822.3931662530749" sparseCutoff=".61443179599775610"/>
      <sparseX i="270" alpha="-19972.397840638721" sparseCutoff=".61443179599775610"/>
      <sparseX i="271" alpha="3981.8513976151530" sparseCutoff=".61443179599775610"/>
      <sparseX i="272" alpha="-2281.0778439624255" sparseCutoff="1.0000000000000000"/>
      <sparseX i="273" alpha="-16798.470735057737" sparseCutoff=".20962583671450652E-001"/>
      <sparseX i="274" alpha="278.23627713849123" sparseCutoff=".97050850839450109"/>
      <sparseX i="275" alpha="5563.2657960427678" sparseCutoff=".96930146376873472E-002"/>
      <sparseX i="276" alpha="223.39332426763218" sparseCutoff="1.0000000000000000"/>
      <sparseX i="277" alpha="-169.15174847066297" sparseCutoff=".76692200759605167"/>
      <sparseX i="278" alpha="8273.5728699223127" sparseCutoff="1.0000000000000000"/>
      <sparseX i="279" alpha="-661.99442860449540" sparseCutoff=".97667300485824904"/>
      <sparseX i="280" alpha="-2333.2362993833144" sparseCutoff=".96193563585197639"/>
      <sparseX i="281" alpha="-2743.3289505807652" sparseCutoff="1.0000000000000000"/>
      <sparseX i="282" alpha="9016.4593279070868" sparseCutoff="1.0000000000000000"/>
      <sparseX i="283" alpha="-3205.0318576357672" sparseCutoff=".99921431337877586"/>
      <sparseX i="284" alpha="-802.37480002984228" sparseCutoff="1.0000000000000000"/>
      <sparseX i="285" alpha="-4418.8118341364980" sparseCutoff="1.0000000000000000"/>
      <sparseX i="286" alpha="-2928.1625719584290" sparseCutoff="1.0000000000000000"/>
      <sparseX i="287" alpha="-572.35076020669908" sparseCutoff="1.0000000000000000"/>
      <sparseX i="288" alpha="-930.75764208650094" sparseCutoff="1.0000000000000000"/>
      <sparseX i="289" alpha="-1248.6939186760362" sparseCutoff="1.0000000000000000"/>
      <sparseX i="290" alpha="3567.2708465819774" sparseCutoff="1.0000000000000000"/>
      <sparseX i="291" alpha="5739.0571109422517" sparseCutoff="1.0000000000000000"/>
      <sparseX i="292" alpha="-11686.981574179301" sparseCutoff=".45910766436410749"/>
      <sparseX i="293" alpha="296.34651141759593" sparseCutoff=".82045335655167584E-003"/>
      <sparseX i="294" alpha="7610.4832252418992" sparseCutoff=".72605452050986197"/>
      <sparseX i="295" alpha="434.01547318723749" sparseCutoff="1.0000000000000000"/>
      <sparseX i="296" alpha="-4217.0384054432725" sparseCutoff=".87075082541524917"/>
      <sparseX i="297" alpha="988.63595988048746" sparseCutoff=".17672482199806661E-001"/>
      <sparseX i="298" alpha="11209.621710303600" sparseCutoff=".97869220733225570"/>
      <sparseX i="299" alpha="-5560.9249448859409" sparseCutoff="1.0000000000000000"/>
      <sparseX i="300" alpha="-4142.1453917660601" sparseCutoff=".48305893280684575E-002"/>
      <sparseX i="301" alpha="6062.6252546648366" sparseCutoff="1.0000000000000000"/>
      <sparseX i="302" alpha="-3649.2308148824945" sparseCutoff=".81616094089968771"/>
      <sparseX i="303" alpha="234.31714887749058" sparseCutoff="1.0000000000000000"/>
      <sparseX i="304" alpha="-1908.3655030622790" sparseCutoff=".64189310670661215"/>
      <sparseX i="305" alpha="-397.29585057465226" sparseCutoff=".28835578455357369"/>
      <sparseX i="306" alpha="-528.51607260864535" sparseCutoff=".94681614023678362E-003"/>
      <sparseX i="307" alpha="-4.7226693925526648" sparseCutoff=".29465126397859587E-003"/>
      <sparseX i="308" alpha=".87078798970817450" sparseCutoff=".19329137884716019E-005"/>
      <sparseX i="309" alpha="6594.8481496333243" sparseCutoff="1.0000000000000000"/>
      <sparseX i="310" alpha="-4508.9410364841106" sparseCutoff="1.0000000000000000"/>
      <sparseX i="311" alpha="-1279.4084439250776" sparseCutoff="1.0000000000000000"/>
      <sparseX i="312" alpha="8254.3581191870016" sparseCutoff="1.0000000000000000"/>
      <sparseX i="313" alpha="732.69201703589943" sparseCutoff=".45990264887205362"/>
      <sparseX i="314" alpha="-2440.8776302477504" sparseCutoff=".25826827120133400E-001"/>
      <sparseX i="315" alpha="8742.7348146878139" sparseCutoff=".50701150899938929E-001"/>
      <sparseX i="316" alpha="-4949.1158899539569" sparseCutoff=".52013347623173556E-001"/>
      <sparseX i="317" alpha="5437.9819115093223" sparseCutoff=".37451512111682161"/>
      <sparseX i="318" alpha="7745.6783475010343" sparseCutoff=".47816826208858854E-001"/>
      <sparseX i="319" alpha="3584.9945802014122" sparseCutoff="1.0000000000000000"/>
      <sparseX i="320" alpha="-1465.4646995588505" sparseCutoff=".53426900005582478E-001"/>
      <sparseX i="321" alpha="-2089.3197136546801" sparseCutoff=".11507426720969427"/>
      <sparseX i="322" alpha="8611.2167337531046" sparseCutoff=".99795312623754229"/>
      <sparseX i="323" alpha="-5164.5700320252490" sparseCutoff="1.0000000000000000"/>
      <sparseX i="324" alpha="10511.023735875806" sparseCutoff=".80555267218605531"/>
      <sparseX i="325" alpha="-1406.9268464136346" sparseCutoff="1.0000000000000000"/>
      <sparseX i="326" alpha="-128.92348502824481" sparseCutoff="1.0000000000000000"/>
      <sparseX i="327" alpha="1592.5450615460854" sparseCutoff=".22899039158336187E-001"/>
      <sparseX i="328" alpha="-4005.8915049272623" sparseCutoff="1.0000000000000000"/>
      <sparseX i="329" alpha="-479.34453211399097" sparseCutoff="1.0000000000000000"/>
      <sparseX i="330" alpha="1602.7525459216893" sparseCutoff="1.0000000000000000"/>
      <sparseX i="331" alpha="1220.6718104812221" sparseCutoff=".43648206300753167E-002"/>
      <sparseX i="332" alpha="-3897.0473359546218" sparseCutoff=".32165516858049248E-002"/>
      <sparseX i="333" alpha="587.03445147890352" sparseCutoff="1.0000000000000000"/>
      <sparseX i="334" alpha="-3601.8325207450980" sparseCutoff="1.0000000000000000"/>
      <sparseX i="335" alpha="-3458.6321694123480" sparseCutoff=".25429623852412098E-002"/>
      <sparseX i="336" alpha="-2739.9344470259143" sparseCutoff="1.0000000000000000"/>
      <sparseX i="337" alpha="6174.3969737123352" sparseCutoff="1.0000000000000000"/>
      <sparseX i="338" alpha="-313.83306131902140" sparseCutoff="1.0000000000000000"/>
      <sparseX i="339" alpha="-6479.9551365839588" sparseCutoff="1.0000000000000000"/>
      <sparseX i="340" alpha="-4304.8138791078172" sparseCutoff=".12831697172915862"/>
      <sparseX i="341" alpha="918.55276740950933" sparseCutoff=".25082609666955968E-002"/>
      <sparseX i="342" alpha="-2616.2792477690405" sparseCutoff=".29885176866352725E-002"/>
      <sparseX i="343" alpha="-6429.3340391661077" sparseCutoff="1.0000000000000000"/>
      <sparseX i="344" alpha="1056.1697932990082" sparseCutoff="1.0000000000000000"/>
      <sparseX i="345" alpha="-7775.3532504429040" sparseCutoff="1.0000000000000000"/>
      <sparseX i="346" alpha="1547.1865266635943" sparseCutoff=".95458022457172587"/>
      <sparseX i="347" alpha="1483.8226759251131" sparseCutoff="1.0000000000000000"/>
      <sparseX i="348" alpha="2258.8252573463587" sparseCutoff=".16940641686790225"/>
      <sparseX i="349" alpha="-4347.0667116039685" sparseCutoff=".94883971245853127E-001"/>
      <sparseX i="350" alpha="-201.31819346579590" sparseCutoff=".20356001964995802E-003"/>
      <sparseX i="351" alpha="-3239.0608563674627" sparseCutoff=".20373047600592992"/>
      <sparseX i="352" alpha="-12645.663701745738" sparseCutoff=".20373047600592992"/>
      <sparseX i="353" alpha="3151.0674290830925" sparseCutoff=".20373047600592992"/>
      <sparseX i="354" alpha="9903.0715067508045" sparseCutoff=".20373047600592992"/>
      <sparseX i="355" alpha="-436.87737715122120" sparseCutoff=".20373047600592992"/>
      <sparseX i="356" alpha="10863.384203216325" sparseCutoff=".20373047600592992"/>
      <sparseX i="357" alpha="-2438.7294947534215" sparseCutoff=".87335233430152814E-001"/>
      <sparseX i="358" alpha="-13506.253437746920" sparseCutoff=".40456852664588705E-001"/>
      <sparseX i="359" alpha="-2705.9916219683446" sparseCutoff=".40456852664588705E-001"/>
      <sparseX i="360" alpha="-1794.3312831078040" sparseCutoff=".40456852664588705E-001"/>
      <sparseX i="361" alpha="-48.924081813049639" sparseCutoff=".45997765919545963"/>
      <sparseX i="362" alpha="6756.7570833497130" sparseCutoff=".45997765919545963"/>
      <sparseX i="363" alpha="-7236.2146837627270" sparseCutoff=".45997765919545963"/>
      <sparseX i="364" alpha="-7825.9371254952257" sparseCutoff=".45583828421627537"/>
      <sparseX i="365" alpha="-9593.3380197303595" sparseCutoff=".40456852664588705E-001"/>
      <sparseX i="366" alpha="-1483.5547954550107" sparseCutoff=".45997765919545963"/>
      <sparseX i="367" alpha="-5532.1278472361510" sparseCutoff=".40456852664588705E-001"/>
      <sparseX i="368" alpha="-15272.783214661304" sparseCutoff=".45997765919545963"/>
      <sparseX i="369" alpha="10861.973707287008" sparseCutoff=".40456852664588705E-001"/>
